[[[0.18394155023122705, -0.3444007923284046, -0.33097876087062106, -0.2995548432051893, 0.26279980589511, 0.4689631492398888, -0.2766494638685334, -0.4603857467697431, 0.4187927380764992, 0.4242038688577574, -0.11856086903202534, 0.3715000322365041, -0.3086431223511783, -0.4582195726993422, 0.07699124536079671, 0.22457466691210293], [0.44659774661485274, -0.2347901833770233, -0.1806174822658, 0.15253701796091523, 0.09551239505255815, -0.2287477551729863, -0.08186459634948073, 0.4820853386683088, -0.1926428689890689, -0.09632502316326519, -0.46833739063621593, 0.4078438090090055, -0.3516449880189009, -0.20087322321976075, -0.1539899807762546, -0.31050045493873313], [-0.19666950312499987, -0.0637983021219386, -0.15125781320119092, -0.019989193889020207, -0.043585064223581105, 0.14828255707138027, -0.23490944350798126, -0.4864274906098496, 0.41952078433859386, 0.4724389325059801, -0.31359424992511686, 0.4696986048258076, 0.3357706733201694, -0.25475290824658436, -0.29204426017570195, -0.2117450591168606], [-0.11471236597224865, -0.4064598590038785, 0.3759973789730402, -0.06059340605259822, -0.40583021253667273, 0.16748376804135856, -0.23337412420264902, 0.21738781313137034, -0.33653846516221064, -0.2418545261544427, -0.3093099613781425, 0.46080953101916, 0.39247904922583865, 0.498810560504085, -0.22963678452904634, -0.32382490810015596], [-0.17555546692757362, 0.2840550426251114, -0.15749583475933304, -0.4476121880406556, -0.22576776998131343, -0.14185676467400088, 0.25381828330931744, 0.13645371011411978, 0.11544493358353758, -0.012076826996778922, 0.3911442667920758, -0.11041489990152886, 0.058292767465625284, -0.03485422913775793, -0.3192292193962122, 0.0717256446448562], [-0.4191730607904115, 0.4052023230003018, -0.24754479271816943, -0.10068682742705282, -0.32776687331709875, -0.3689604551399248, -0.2856250928241937, -0.34593605406388495, 0.0038891513129085675, 0.12031136532862119, -0.4162693354337903, 0.4449987702263981, -0.14244021251768624, 0.24604839075575702, -0.06624267829454877, 0.4186553001994918], [-0.42846750338960116, -0.05744391329307119, -0.3093830513989294, -0.028233123927640102, 0.40969116823474194, 0.2358789531316804, -0.1576030715121043, -0.2655589966575701, -0.47304682931471376, 0.4099168230591673, 0.21339767167355428, 0.07772092394935359, 0.14232514472090596, -0.22307902904809662, 0.4249180758014768, -0.2725404546662187], [0.4140632210619696, 0.3341000292405306, 0.06037812647437457, -0.4223709797249561, -0.22451215057526686, 0.40291075831690293, 0.4543595792788916, 0.17994383338905273, -0.4341995478143932, -0.3828301309327051, -0.032006777431701106, -0.23146300703324563, -0.16048322087514832, -0.22893390697040084, -0.3297673562000021, 0.01938271432304628], [-0.18270687961179244, 0.4959381764814208, 0.282784691681231, 0.16744646920643613, -0.4581526593278856, 0.162434464562916, 0.16388095396548463, -0.2691959672116069, -0.0455218819513411, 0.2937570285185003, 0.11937245594828672, 0.3132591939289193, -0.09595218109423465, 0.13516309815367167, -0.4216875885766358, 0.23770472859328118], [-0.14916268312684344, -0.11918231119695877, -0.232388808612759, -0.14736481865987283, -0.1431821683121045, 0.08581271804312518, 0.0904679437533028, -0.3107226253488957, 0.05517176433977078, -0.3933341252582, -0.13622239054964613, -0.047460641403826886, 0.24079706334076045, 0.10327062735162851, 0.4927021392614669, 0.3269755296451028], [-0.1702384873273466, 0.03356896324226677, 0.20974862328087374, 0.39324279569176046, -0.18678195054469027, -0.3508767162866, 0.386694301080015, 0.46551805869372254, -0.38531266983369905, 0.32201636003180967, 0.2272019259054957, 0.07573642223433175, -0.21634974615239178, 0.3888529747611291, 0.25326642847526293, -0.331532752636982], [-0.3600497999416069, 0.19353909318828344, -0.39111492979390794, -0.17714400448196266, -0.13373351221825303, 0.21284793234279098, 0.4688962883497413, -0.45122507346507723, 0.17594481400279793, -0.3088564781091502, 0.029363718468419897, 0.2953833067313385, -0.4761103388128832, -0.28792426033002183, -0.01815776976352479, -0.006431814181058315], [-0.3872568363846648, -0.09970842819303216, -0.07253686658999658, -0.3274935148347975, 0.042046492673296076, -0.21755432724593604, 0.49197438428636, 0.40696944852017325, 0.1595536149277189, -0.3634018480485761, -0.24853884112745983, -0.26570313135512513, 0.4355043899259713, -0.2500322434132475, 0.10656676566868606, 0.32940605349821306], [-0.4351766404318097, -0.21290624441055905, -0.38999436235207074, -0.28545021164800166, 0.3060496468254591, 0.233200448839462, -0.305845233794914, -0.12988638565498478, 0.0644618139687072, 0.3968602618925925, 0.3131375981400777, -0.41749516426683997, 0.3792898227307203, -0.01679721903738174, 0.25598749324190173, -0.22790749574508296], [-0.09645500490261916, 0.13826483350176688, 0.27986974911767815, -0.3782435188051554, 0.12489296042640008, -0.4276231703689485, 0.24013159762352032, -0.4069490873277841, -0.0526135664722055, 0.46693255116911925, -0.1459933999427988, 0.40790005698797605, -0.08337690151130583, 0.44630414003310626, -0.4091612697163264, 0.3293461925039285], [0.029755074638645018, 0.17264275729357859, 0.42777563123359463, 0.0346064853670065, 0.431009790989363, 0.3183168881703474, -0.003461204132063078, 0.09829631550123241, 0.46764656859769516, -0.4566366064850611, -0.25588367680748325, 0.36339446305332024, -0.021473364062908895, -0.2974642203718161, -0.06288535138526086, 0.204103856388561], [-0.2738592947479179, 0.17497138038980398, -0.40825038701849425, -0.01221852561816672, 0.09706070591108551, -0.4848612913859176, -0.11165912196191896, 0.22599909334368717, 0.31462018917308643, -0.2490372821077631, -0.1595212683205437, -0.29416541390931006, -0.184525269632127, 0.22901533800928742, -0.4710011813447743, -0.02869910589078961], [0.47433893216994316, -0.3944166584289439, 0.08626326066493883, -0.09626008088511662, 0.3552751702242629, 0.24196135912739125, -0.12382683411322348, 0.3741881342875185, 0.26452252133285736, -0.46259364196774644, -0.37957151818075907, -0.17344775417570746, 0.19318628972936058, -0.21900242421614569, -0.2124620472744011, 0.14716272186898693], [-0.370898684411353, 0.3488812307514615, -0.297933056018032, -0.07324051442491197, 0.018785371261240913, -0.07925270404867579, 0.39488256052998805, -0.2329601172486595, 0.2197881869221523, -0.035815151984308846, -0.3530523064923796, -0.42183054469509773, -0.1670591483905849, 0.24745877292894103, 0.16377150120442563, -0.4154006783527556], [-0.25601153609706706, 0.31301660822113, 0.36705780653640785, -0.2680779077263491, -0.11991009560973953, 0.15684019057770637, 0.2731946999737048, 0.4596499981017017, -0.28200715059157455, -0.35094289357763464, 0.19676581163682072, -0.2566963811439996, 0.10726080143661576, -0.4760817737896108, -0.3381682673356329, 0.2502574806680884], [0.21495511044035187, 0.18033134822603447, 0.24680451238841472, 0.14814936401018353, 0.036972818598896895, -0.13968089987821497, 0.3485582877437382, -0.07217242623143716, -0.08317502645883001, 0.38444970700646774, -0.29211002047471923, -0.42830343185233977, -0.4652698212612032, 0.26673110333377037, 0.00642322273773166, 0.394594668808706], [0.298753923531881, 0.3156942086593527, 0.1806065768298658, -0.23421283113911062, 0.01633193197344973, -0.48041738875165085, -0.44895308346483787, 0.47958115763128306, -0.35718640668039126, 0.23587258090284247, 0.2038250300714658, -0.17319817150349226, -0.29991164548260174, -0.3368278773358294, -0.004777744538580819, -0.2631888442161784], [-0.44117840855049373, -0.4614358802687961, 0.2130722480579187, -0.390274019317864, -0.29146510248546753, -0.48339687608829485, -0.3789639418597248, -0.40594492415214756, 0.0773549763754473, 0.49424929679871654, 0.09510052254665768, 0.38625951543331005, -0.1695286939903098, -0.19933074102341086, 0.14300931719625298, 0.43845904649010137], [-0.49202231955678, -0.012574568813828346, 0.319412090103147, -0.3334364175741513, -0.43843786323095335, -0.06954562606111203, 0.23875303120339963, 0.12957430820587423, -0.06109878494747567, 0.31613408296011836, -0.28898555133667403, 0.10200130999435675, -0.48158358506473775, -0.06128620820595776, 0.3744732290534253, 0.35211011831939254], [-0.15451773811526837, -0.37121624758543226, -0.1233577210575868, 0.04769942089649759, -0.2542924420616387, 0.28611297351955234, -0.17416453857871173, -0.06550506080899787, -0.0978550021801673, -0.17105000605823106, 0.12268668036778108, 0.2794561887357814, -0.22294459156502344, 0.32484436112217974, 0.3339357690219077, 0.23703409972323242], [-0.4144514317543926, -0.08533029306484496, -0.4385386583317087, -0.3525331971713641, 0.022265374449267905, -0.20558992062423287, -0.49801193278138356, -0.4388896174795307, 0.057803206821687714, -0.03631177228548077, 0.4446737632741804, -0.3538118372294743, 0.48107153516660717, 0.25665397792442823, 0.41778163631848975, 0.03644490287719604], [-0.17791542752590472, -0.3194375358606285, -0.30313573630997237, -0.13424656811777114, -0.09642667276821815, -0.4414795765646061, 0.44596785151390417, -0.2499052130702033, -0.40713052049069054, 0.19320074034835177, -0.15449214086915042, -0.23195545240094873, 0.159108013506292, 0.4048285960629556, -0.18069737166236532, -0.24717482807773306], [0.364178518949846, -0.1334994571628113, 0.2913064815084543, 0.07641888046831957, 0.23728603471352283, -0.44860997295729843, 0.22783156515376835, -0.33914681041647377, -0.4947042172618682, -0.30057791372907805, -0.39577807601062964, -0.1511262551632918, 0.3266006347625854, 0.4604997805156683, -0.4085078986069163, -0.05307924718052337], [0.32432558765156805, 0.43070669578019793, -0.27706512786359827, 0.11913798217527827, -0.375686271002606, 0.20980304856924847, 0.04065189782855949, -0.20559662049643446, -0.039885339581672175, 0.08400566643651552, 0.04336556858767593, 0.49229800470079876, 0.3300734174211851, -0.3461823917335618, -0.023117072212366474, -0.031236603028181542], [0.40751611207287797, -0.017836729055325073, -0.3461731758491823, 0.058383033747898216, 0.3677517041366536, -0.010378819033340259, -0.06314617820149093, 0.29591376456016993, -0.43535394970669006, 0.45030281819031426, 0.1451319197802572, -0.2105596610940439, 0.026817992797926404, 0.17542688779186721, 0.1276992273438422, -0.28453079726270525], [-0.3009739769688572, 0.13116683348805147, 0.39186226833596904, 0.11875159981534034, 0.12435953373541397, 0.42433602175414786, -0.15644396657015347, 0.41240890810878716, -0.3780327267290359, 0.3654573942249175, -0.46222276776464777, -0.046526276048187376, 0.34907857937427333, -0.41905532237282817, 0.2533691083316506, -0.036844023555704375], [-0.23112088461512603, -0.14908279198285035, 0.4165580018357524, -0.26780033199885556, 0.12569792216581377, 0.47477245266439083, -0.07880049542428125, -0.3937185655408081, -0.009340236159717574, -0.049461541439907775, -0.4108966072374267, -0.10780363193592046, -0.264075857377693, 0.4686063446392429, 0.27346171388998, 0.4156342144195656], [0.12854143054636602, -0.0935109756921263, 0.045307079288141594, 0.10100365395627608, 0.31013935864512554, 0.3066413392510128, -0.34242263491010205, -0.0683516492433549, 0.3141407829541758, 0.4925324934244917, 0.4052319882864972, -0.45612604217373043, -0.4699142192467698, -0.1388916472011883, 0.15935132493856252, 0.4720202809390175], [-0.17787640274316596, 0.4066142009329865, 0.376369557303768, 0.24337440808285982, -0.17402796903921447, 0.34356041837624296, -0.14500434716587585, 0.3106135304402332, -0.09396186548424867, 0.3149228198821836, -0.020494151710151454, -0.23110456255776624, 0.21944729819569087, -0.2940754115272949, 0.42673319863079995, 0.2327611670341232], [-0.03284099438427046, -0.2682579852522221, 0.1861347542407561, 0.18052538271869134, -0.4388823534876135, -0.2802080701293401, 0.20973815096666604, -0.4293161250544806, 0.030936532642489634, 0.4680534834818527, -0.24996139100206538, -0.4630391654027862, 0.41471393006029267, 0.18905151975525647, 0.19681915227960856, -0.48434173521731294], [-0.23985763163679663, 0.2651893643375499, 0.10667123597678774, -0.26626679324660474, -0.25018199907814187, -0.09186655958669698, -0.3326148900059528, -0.10924531475521793, 0.14681251841719056, 0.23571346837630414, 0.1035624169653705, -0.014339318883841323, 0.30734846319019204, 0.39857964111585, -0.0790121324194667, 0.04313311272010967], [-0.2569463956100576, -0.1699048177003053, -0.00553099573812621, -0.20945452484693583, 0.18739135190140943, -0.09188265562397335, 0.20367815207742535, 0.07805321165850099, -0.47801205186578555, 0.3734970697446627, 0.24551264533969108, 0.1320320825680038, -0.4609618702433568, 0.3173767324412854, 0.03522683746627153, 0.23890486401792443], [-0.062450435446716024, 0.3821376760706542, -0.27308880734300056, 0.468221167898916, 0.28837936248543294, 0.3234012312705321, 0.22548975132272064, 0.39118647797763506, 0.24507902567213624, -0.07834461671015436, -0.4514843789592974, 0.02946262086435758, 0.2501549398550724, -0.1433882587363997, 0.02244324957720223, -0.4263192621134966], [-0.3103154370722868, -0.29604957772079454, 0.4584505031117678, 0.4076074307134693, -0.18939680083304988, -0.36143151862458256, -0.03926749458793499, 0.23621517562590322, -0.19614023200699338, -0.3082329306531927, -0.34454765588368663, 0.3424161800069917, -0.042604848423938524, 0.24178967700641474, 0.44254847424743593, 0.05339848782333734], [0.10410035134490225, -0.050127194595310565, 0.31305349219521517, -0.3725328998724413, 0.1244783739708365, 0.1856375807061652, -0.26134904061392505, -0.31083588943420204, -0.1444890663914966, -0.08427586712647384, 0.44998831405474493, 0.18243447821963554, -0.25275353524190747, -0.4289337740897624, -0.15989479190859113, 0.2865498633942384], [0.2939559971455665, -0.2817064500217582, -0.3230186046484611, -0.4398494175671098, -0.46782428638230333, 0.20251418490705442, 0.18489569027765285, -0.12312387420358561, 0.378868141562103, 0.17625721316063914, 0.308208864513153, 0.35180336585579786, 0.3477384359572261, -0.18954496878323202, -0.045390831417834065, 0.0786298190664041], [0.3717764004153249, 0.11299722669516032, -0.21826829943020343, -0.02874277708773365, -0.16612888262586778, -0.13095681475574306, -0.3497378710858988, 0.37874219556027955, -0.3862491097729872, -0.10938182023838727, -0.11660497210487009, 0.41504881137519245, -0.13365268342566627, -0.07884363678873207, 0.02767396401823219, -0.3185125171573635], [-0.09898169036368343, -0.1768561775882025, -0.10895011723849135, -0.1677314362327098, 0.39421984169953816, -0.09709721929658932, 0.08140154400645072, 0.16916749082166704, -0.3545800317328479, -0.10678802470174098, 0.3644987734244093, 0.10357469606737757, -0.30033361678511505, -0.13477970326962785, 0.18392571514952338, 0.3648075152111726], [-0.24606736517732153, -0.47051695131231774, 0.23109451632861921, -0.08806872188218384, 0.31629858643178554, -0.3414658163624046, 0.21864889973460633, 0.39237346757108615, -0.4933640907243608, 0.27050480023386814, -0.2125200525477663, 0.049198959555484256, 0.06883605437135087, 0.1832692495203132, 0.2937509936472328, -0.33237967882519925], [0.03602754007395592, 0.15967335065061816, 0.24517571029813534, -0.45614926729352046, 0.2505162635037824, -0.4513970471254246, -0.042883424070401244, 0.12481660464615252, -0.22513162197238223, -0.36987175330751376, 0.050924920812240315, -0.4286510535957293, -0.36708989454026486, -0.131875978127467, 0.3262481970401957, 0.3424089791020062], [-0.4213355443495843, 0.4518221213376924, 0.4615577149650265, 0.013866856668492633, 0.13160242630813646, -0.2636164957363716, 0.4388897300771297, -0.43199061707973496, 0.07236468888176684, 0.3869785783672597, -0.03797273718965388, -0.3339209474275683, -0.17096814318164466, 0.00420871442993398, 0.051848633917753184, 0.43966230059927724], [0.20011845097911551, 0.08211866071071716, -0.18325552425638836, -0.052162236132913375, 0.49494196985480066, 0.20943257435139195, -0.3193096103804667, 0.41722912649272603, -0.08880993634093026, -0.1070454708951496, 0.2212147433676862, -0.4344207125602435, -0.1389005655155534, 0.19106863665586182, 0.471183270882498, 0.10695046177515288], [0.3430792722709538, 0.481587997059025, 0.03871862473748289, 0.48847893979731827, -0.18461312646685835, 0.3325921428718266, -0.12486135718501268, 0.4848399784603985, 0.057792259185644124, 0.01785412013483667, -0.015456378938556226, -0.2799499063565003, 0.3621725704473585, 0.20357581283291326, 0.3494294120226452, 0.23145140095593042], [0.3155786412970061, -0.06452398727762532, 0.3558181883609123, -0.3928375583031456, -0.3263734643371584, -0.3507834532201287, 0.28062019208858524, 0.4166903686801061, 0.22666106358506466, -0.4800700577347389, -0.24258082083236265, -0.2203716863994405, -0.03013524450704763, 0.19955225339168559, -0.2653250831352669, 0.384189463681321], [0.17228888254737884, 0.1463231651584166, 0.15181710998667586, 0.12771765985166939, -0.23112676338706084, -0.4245692317565847, 0.28912062898973523, -0.476469658761991, 0.30403340589324535, 0.3673188177921548, 0.2716155528400964, 0.22187865645418647, 0.3382110983805281, 0.3043036151283093, -0.2684039190348164, -0.29713487084672185], [-0.24908306524725854, 0.1650747433673423, 0.12422469170506323, -0.32277376110955514, 0.3212467498602347, 0.08569477342636866, -0.2877451887522846, -0.38224190168708605, -0.17890436122935605, 0.4635781898038652, -0.11581517425619992, -0.4353999159893587, -0.04845299024251282, -0.09227680795705107, -0.32563588214815675, -0.0598931487486144], [0.2957570264386984, 0.1244000409282221, -0.05495259038459144, -0.2598714354800802, 0.24535751466107725, 0.13471473106375575, 0.1765827679343519, -0.012657208863832037, -0.22806027628896486, -0.42905099478872455, 0.09864344155929905, -0.4003600887578834, -0.15226153510389995, 0.4717484334913301, -0.31652001168525723, -0.3064023491045098], [0.18778084099620107, 0.09175135317971694, -0.04581652655460999, 0.4769827391386926, -0.3975517323572505, 0.4178894036559101, -0.24347809926288666, -0.1758269541327041, -0.04928028610086044, 0.35178439674508577, -0.005066856015205179, 0.13723215036571024, -0.25343857286793803, 0.2115603962007695, -0.3586489729285127, 0.18289684303520792], [0.10047358271346085, -0.2820309340737427, 0.10223927574496006, -0.20551963254195915, -0.05314130685552754, -0.026165523183132255, -0.03789221312769542, -0.3852233781097345, 0.43763375927636117, 0.4921423153401778, -0.17741675480361474, 0.31272214380842367, -0.20628172270335876, -0.05519792653979505, -0.2701838785814078, -0.24661225352959326], [0.2597854538374269, 0.02414659813359943, 0.02109388663928191, -0.20083643273671692, 0.40056879778582233, -0.2676295479086436, 0.33040283058637177, 0.3551936599956623, -0.11722231942198369, -0.21120232623865676, -0.05297110605520727, 0.37194043882398276, 0.10795203682354615, -0.177209881097109, 0.20411490084137296, -0.12901230921054452], [0.04654196149652512, -0.029309698441933985, 0.04210402841281791, 0.051503328100108825, -0.13848863035912107, -0.34394739338721503, 0.19344610782071936, 0.15885972528184433, -0.1919047637429454, -0.3352403780715263, -0.0797632237484468, -0.1515088977823118, 0.14020231468243227, 0.0971337375832999, 0.03560196507068747, -0.1524829416035297], [-0.2624162873301258, 0.21185506449095903, 0.1541253211564767, 0.028348496071973983, -0.3070945325824417, -0.3554122095236585, -0.26486221645544716, 0.2106121931544943, -0.13185956163011803, -0.3871328835796598, 0.2823854786459964, 0.032649747256766504, 0.3588743410901767, 0.014542184535924596, 0.2707220818559811, -0.40304972398671257], [0.3844213478158085, -0.3703568602947773, 0.233383469848085, 0.09296502781312943, -0.3894084332234873, 0.3068864697580388, -0.3136341135773445, 0.4443878104270006, 0.3232229134428948, 0.42918195565652717, -0.4050668702736635, -0.12671981806654897, -0.08647234053098751, -0.343133083823722, -0.150116731109169, 0.4915566052748712], [0.352672922336123, 0.09448954055966463, 0.21586004103353384, -0.21469430367673137, -0.4158132914376388, -0.37527501909060457, 0.4662438331121642, -0.3497890581182337, -0.276785434658835, 0.30381301255159743, -0.16566465850143341, -0.2490330416910428, 0.47712340877842985, -0.3887796219528148, -0.0734818850570178, 0.2857672871330438], [-0.43517786945297143, -0.36495409257736644, -0.1816917279285647, 0.45611811489508625, -0.21117315009968596, -0.10241282478241032, -0.39155300457213216, -0.2874485311662479, 0.3621004326015099, 0.3907557840549104, 0.20718536601653015, -0.4605936365128015, -0.2512592197951664, -0.17994161904283468, -0.12941833817952209, -0.1611497096797302], [0.08735781528318876, 0.3779438012401829, -0.34300351003136176, 0.3649291512066387, -0.2638468797588268, 0.43714572244863625, -0.021258656332326042, -0.4941607119434668, 0.34247006903683785, -0.4197566982617974, 0.08147971384246455, -0.13290561926435984, 0.13135766044403718, -0.3539764900769289, -0.41713724394972573, 0.14700005688547302], [-0.3769537057791439, -0.1493847125322848, 0.4559529738874841, 0.4038655960213896, -0.15086545029363885, -0.41373711344796527, 0.037209475376003276, -0.4792281652024173, 0.2847266817556672, 0.34465461719857937, -0.43273219195353896, 0.19657211060798996, 0.13504021811552558, -0.42659672204442867, 0.17590674415211505, -0.07876055502648649], [0.05752007061703701, 0.22160515684270743, 0.17520527635478533, 0.05121585436140608, 0.18020092062009485, -0.13314481284600255, -0.23763223225065888, -0.18316728261964876, 0.03760849640821684, 0.4945749652942051, 0.33727405916753783, -0.17874549166598375, -0.14080773684682857, 0.3070924807359472, 0.3063945910121364, 0.4733510064537122], [0.35036689113642727, 0.44521294055664085, 0.011630443880883301, 0.01800420348185061, -0.4447530300593884, 0.4767047563188189, -0.16883648720102395, 0.3679578753320858, 0.4945221833939678, 0.3132988418636128, -0.42898785354242375, 0.27693124372841305, -0.10031694219145926, -0.4507771489649066, -0.4095361294352917, 0.024676704129349636], [0.12857336830563182, 0.2350033880411142, -0.449186087669149, -0.30623833716612003, 0.06372149408499073, -0.2094256456211916, -0.08798467745532246, 0.026256415994260207, -0.39069409070856354, -0.07139401657444666, -0.14520162926655422, -0.2539070588203429, 0.37654513345304486, 0.4240985850798292, -0.47441256410069843, -0.39537304322652256], [-0.03305384127012512, -0.17074860446137996, -0.013686713505118742, -0.34780603230379514, -0.4892003147511105, -0.3654278743874383, -0.40748556110105594, 0.4171502770711458, 0.11076784457502475, 0.05364271724721004, 0.18369599502498535, -0.3761703735337717, -0.019869406503061127, -0.47778025412892555, 0.4287436308182362, -0.06063756517510255], [-0.4902566562439644, -0.49897218164294876, -0.42085084387836724, -0.13792194741486485, 0.17304533996338145, -0.32693050668255363, 0.40892638790545544, 0.31312011787087046, 0.24377525134389244, -0.2770398241799752, -0.40037304198579693, 0.04784263746047124, -0.312550664581704, 0.3863800425442879, 0.2718881403989648, 0.49099062051447206], [-0.277102155234233, -0.27197144687068664, -0.05311036952330983, 0.2778774877367911, -0.4878667128859898, 0.006702753758004998, -0.1666713052636366, -0.05084528771093211, 0.05242547630562466, -0.23806873246013527, 0.24098438134796363, -0.25602598784649655, 0.39339310698503627, 0.29129924522315953, -0.41330569574802545, 0.19901339319621592], [0.3529224686289406, -0.2531973239527633, -0.3417686753169138, 0.24391839976376506, -0.05178896641278674, 0.3910693346682833, 0.0006380291270036142, 0.045208316744153376, 0.36974858370194796, -0.0594458309668523, 0.3447737946699574, -0.47175175273976866, 0.07778425249935439, -0.37508374129329736, -0.4574057801648409, 0.30222168162344776], [-0.3417242328999853, 0.44179964382469084, 0.03701882641487997, 0.48704030497466766, -0.28242643825774083, 0.1321340002134722, -0.3690205414940818, -0.20455378976863914, 0.26400504292972093, 0.4828040737980618, -0.12045998309754258, -0.26816440428282884, 0.14887146012136832, -0.31303783002655794, 0.42931477395839257, 0.4183710218467934], [0.026560024609097677, 0.3625070716285824, -0.44666010685730184, -0.1798183613491191, 0.16532593502412607, 0.06322353901868316, 0.22350043134981734, -0.4437944266639853, -0.43664604954817243, -0.08511008708824463, -0.07986552028429827, 0.36300577571426784, 0.04428601889999362, 0.29562464510546205, -0.47663876643571534, -0.47763028261915585], [-0.2179366663798502, 0.33021995964273576, -0.01682297472429284, 0.18549240649983645, 0.34382151604432565, 0.1453505882513474, 0.07704154534140006, 0.21823381136614073, -0.2463378579643115, -0.18070282434571672, -0.18761774528784836, -0.08002168366172457, -0.48953939935248225, -0.4222328012561426, -0.0074422609883111335, 0.4802968753855644], [0.3789581949887998, 0.20892302741022717, -0.47236278431074075, -0.34226961537534584, 0.1863834364383824, -0.28750088160295006, 0.4253762229782799, 0.01751634626233678, 0.19814884804437238, -0.11061340248346452, -0.28926956984459984, -0.1873437285270516, -0.4242438738995813, -0.0742949476256255, -0.33260222122514616, 0.020735561502823963], [0.21370419120486017, 0.3217367526674252, -0.014273729027886595, 0.030522536807711664, 0.08998047043516355, 0.018746641202252, -0.46444192518203053, 0.2506847786469458, -0.24616850640561438, -0.2413502914742306, 0.349967551435036, -0.06819806981921983, 0.07909670865883078, -0.38901397445341623, 0.2468824163343083, -0.1726017287543461], [-0.26761822277135183, 0.21779105685253997, 0.01763361991008705, -0.32241142209293927, -0.23536971682999985, 0.006129217857588687, 0.17312450258933743, -0.0327811311245747, 0.16100603368800948, 0.4399412563044932, 0.22939847420025072, 0.20615503729623674, 0.13746888905519394, -0.20671280727889263, -0.3533311368456007, -0.03187999839573741], [0.1929125637908703, -0.10290105343939993, 0.32391763365252235, -0.2124005034278097, -0.125638533831392, 0.30305866714833063, 0.29926964157214697, 0.41609717844564165, -0.06628979092234932, 0.13770646784285379, -0.32228117148436064, -0.2567147433928785, -0.27686951582543873, 0.10951964667931102, 0.4551694360335977, -0.34652207410742963], [-0.10209376068851739, -0.36277941466050057, 0.2156521741702998, -0.17995826992721187, -0.2250637022804577, 0.02146478571256316, -0.4165346694661314, -0.15816364257727222, -0.30837607668044376, -0.030506252076103246, -0.021323013287650627, -0.4460706059380968, -0.23810663031223733, -0.43025189015600784, -0.19814973754085907, -0.4549597241346943], [-0.43425811057130015, -0.4861444502048333, -0.3912378466369931, -0.3970033387349653, -0.3099849940275947, -0.07292234500646655, 0.4349450096971159, -0.03272118576652294, -0.15482614911502435, -0.4447390529130514, 0.3434461614193318, -0.46043240317547096, 0.25020035988257305, 0.3443239299202012, -0.4668360696110837, 0.3890468511596682], [0.22169279341372083, 0.15045987770159652, 0.3708806336129683, 0.48666422418771293, -0.04973678465086162, 0.49108610291002386, 0.10478789515980014, -0.1522557265193526, 0.015378392625968629, -0.08228529010187147, 0.31761065391880205, -0.24925096324501783, -0.047141913620360465, -0.34758245653837483, 0.1684044432952596, 0.03895894335290906], [0.22909380785945765, 0.16757455147814404, -0.264413863189479, -0.1664634625242798, -0.004788498257834339, 0.17581497740529795, -0.11892902378164516, -0.15517061639943064, 0.1869347901538585, 0.02493738550648661, 0.29595927529375, -0.3834006797098938, -0.41150526955050337, 0.18289401228156377, -0.3823546740676814, -0.1991924217365063], [-0.4873621828243552, -0.3349512270929398, 0.227942422561495, 0.4829559743482845, -0.10867861487585428, 0.2698378646770728, -0.4036144756458597, -0.23697015247601916, -0.07910926560113551, -0.4089659057127093, 0.26264736559343393, 0.46041857120672636, -0.3172297544816942, -0.4670592378373202, 0.46324945411298035, -0.42791809360721034], [0.36856749481785833, 0.25696283622841587, 0.11125047315911962, 0.15956662005788813, -0.02885840318093802, 0.2265333185558588, -0.10842693994832053, 0.38965712445934997, 0.1958142041451415, -0.26201735476442634, -0.30394467794849633, 0.29040563011469145, 0.20087923299639632, 0.4255114313007582, -0.43260460780479915, -0.20045564390979476], [0.04778845017987776, 0.265356589129767, -0.09956801424031514, -0.15194774753972495, -0.20275064038793877, -0.10767596921076439, 0.17637404094162945, 0.2955311254968034, -0.011638025458907797, -0.43048142935636635, 0.032483245032618235, 0.2207799058951153, -0.16319990229355208, 0.02911934205069977, -0.11014780554043824, 0.08069529104196904], [-0.16079168489940243, 0.16141485366196762, 0.358661918874023, 0.24036578135390352, -0.40880343073340897, 0.16114762237267122, -0.48985419176079625, 0.4933421998490056, -0.01770827933893493, 0.30011580932985393, -0.41116074233595623, 0.1204530801821857, -0.4629762897989057, 0.4616694058210805, -0.036399209327065085, 0.22657980613912498], [0.3359352943115731, 0.1771087304198743, -0.17528426335357827, -0.21855648959330687, 0.2836034058080882, -0.3901758278851185, -0.4037875985670625, 0.33598884987122357, -0.17842022518180756, -0.24817418267966396, -0.1386798757256057, 0.10169704680819813, -0.16837964406114747, 0.008177530911334219, -0.06593826242389356, 0.34766335102181434], [-0.34923482562175556, -0.17544157821729767, -0.28307169085072426, -0.15626238571132522, -0.40260436793241305, -0.406310769459415, -0.4927304526549805, 0.20166020016413078, 0.2551242105712508, 0.36752801797501233, 0.3851599105578144, -0.2758024274000206, -0.2996174880650756, 0.3826749854619095, -0.12822124015453418, 0.12000547987848653], [0.4342117021298859, -0.19741429825032164, 0.46719513026529524, -0.24796242616105924, 0.14527659543308524, -0.26614857541216597, -0.43097148822245845, -0.3859608765954704, 0.080259811550216, 0.06511267074894644, -0.010845149704475143, 0.15881602660572658, 0.23496351595446163, 0.39090370610799685, 0.0038999564931578856, 0.4812983755805571], [-0.08248336816099178, 0.3124734847647783, 0.27695085501776284, 0.18251644150790647, -0.38106282199632224, -0.025421582303074897, 0.148133885162279, 0.21482831794777857, -0.12669830604748733, 0.4158120494838504, -0.21901017956411017, -0.452300886727554, 0.48230139914698344, -0.07448206270315427, 0.28296247499716254, -0.4168813363144571], [0.3539995869664646, 0.3188001781658294, 0.12144736918034071, -0.33116999836678085, -0.07036788524477311, 0.25110775667530694, -0.1747337635285242, -0.36884273072072127, -0.31527056332011694, -0.119622953282852, -0.11766895334330896, -0.35640267017064275, 0.45700568423864574, -0.31375395569247844, 0.11395113459587991, -0.21173743339167395], [-0.03672262167590379, 0.09696490178407036, 0.12400628566421379, -0.2919425873550294, 0.46633076783483174, -0.006791162082234403, -0.3618794210831595, -0.4663700023568581, 0.3014845746370689, -0.14627134782439433, -0.2881465337265601, -0.1470741227650093, -0.37364218385613324, 0.34832402148943087, -0.24356729614464012, -0.4705897669406848], [-0.035203121334457466, -0.0338405055762534, 0.36790776691567795, -0.3927721637638374, -0.47078516604889276, 0.3189677513216177, -0.3417041863948711, 0.18822048490302, 0.31067831334497353, -0.31738166833050674, -0.39798294828390235, -0.288942489745841, 0.1414519894304611, -0.0768284063160467, 0.40305487271939655, 0.43024625390960713], [-0.4041197036443416, 0.28691703897056997, 0.33208211088399453, 0.045534079865783395, 0.09060770896626069, 0.08457178338344595, -0.32239207189675223, 0.43019059595556897, -0.21045947275129206, 0.3116096507083773, 0.29877230647011654, 0.2644925431137465, -0.2943357212818535, 0.15725150410183397, 0.13187376833720088, 0.3262068084519951], [0.11765600554218925, -0.47442751273722206, -0.3628436267134695, 0.05026031854744384, 0.3788840688976731, -0.025308622747801324, -0.3891953460765676, -0.24420475860437196, -0.31579591033956833, -0.20041437532370254, -0.3107693210309497, 0.05450217030529525, -0.3626155159597363, -0.24418834525599842, 0.27872754281094325, 0.3242406355621793], [0.1740750727369743, 0.2560355552608672, -0.31048613019431326, 0.19357771026596104, 0.48527297516207335, -0.17591843167475407, 0.06498254812866944, -0.05790677875515693, -0.1318130798952133, 0.3813202041106841, -0.4810121462015736, -0.3261803650196603, 0.15805863222608085, 0.4285548931215589, -0.2293667302249519, -0.08861486259114948], [-0.03226294166834187, 0.07035320433352754, 0.3532539561802872, -0.19189119083327077, -0.3941933823715348, -0.35114757321904144, -0.38292434747995574, -0.19305143204589514, 0.33122845254620836, -0.38536381468187175, -0.40135918463530695, -0.49827655717739294, 0.4760520741271935, 0.25366270355466725, 0.1069802349612794, -0.2555154825298671], [-0.37913776316535197, -0.019682666008880023, -0.4967536468266468, 0.2176878360632567, 0.39299721613739247, -0.4990781851979028, 0.36094646080425696, 0.16000816816341368, -0.48079659502281247, 0.10163984252053704, -0.029841999455806234, 0.08741239375703258, 0.42435626715625374, -0.4642503288542109, 0.3553838502523242, -0.07461320867120813], [0.060422558402480675, -0.157287264473973, -0.03075661384406536, 0.29326977801636467, -0.1998512448929577, 0.4841114547175991, -0.22485082780999233, -0.4823538558317225, -0.3787734963607655, 0.33279710730984424, 0.20729298943372676, 0.3713849362584062, -0.23151041338718437, -0.08662357913474161, -0.16387778087382177, -0.3245165058247992], [0.34155303192492303, 0.40559078799486215, -0.2599949195361718, -0.4820584070869378, 0.013859569101737579, 0.2931356933938789, -0.2982343533151268, 0.39134083321212265, -0.1676148259925394, -0.2058647953967686, 0.23146640413321473, 0.02685496336964255, -0.3761254162362886, -0.0861407882193963, 0.29274060596231255, 0.04725834057849021], [0.4941590239648602, -0.16498248592731712, 0.042387489542770385, 0.28294946928072406, 0.4952497534150162, -0.16202026682549242, 0.4871818844659618, 0.49021704667193655, 0.01737792195888166, 0.47293934410381555, -0.36853666587095124, -0.2849752407016862, 0.3672037833183557, -0.10238316569739225, -0.009527867514124821, 0.4542690243242561], [0.3528951878588803, 0.32254019333144734, 0.28772487185816753, 0.01914685946511896, 0.14035879969317844, 0.45055512721846713, 0.3940074887232634, -0.12835092565431472, 0.3391114267786197, 0.2984764113184144, -0.2593336070727882, -0.4214703256257709, -0.2597186476441028, 0.06329478515319653, -0.011826754571313436, 0.07080127421308957], [-0.10217768621250545, 0.35970733692054524, 0.3654757097875089, -0.3472878837807205, -0.2599368858270926, -0.1172781791630868, -0.1363592040089996, -0.06635185904756302, 0.10101827384793838, -0.49296478604072624, -0.039065519715672625, -0.3691749964497124, 0.11570904280331884, -0.15830918439038444, -0.06497929675243952, 0.07804439019208231], [0.3592695955635392, 0.4114960433037407, -0.2444963308303001, 0.4391632352199264, -0.28082002284465934, 0.026992289198696562, -0.007473159823230713, 0.24440644690224633, 0.25876670452829287, 0.04136230330128032, -0.3609978435919893, 0.3733224724149562, -0.29423551045959073, -0.07927546679354902, 0.2595714098732048, 0.35349545498968005], [-0.46341126447665026, 0.3699438153838045, -0.47115384538625504, 0.18550996589801805, -0.30556029874534507, -0.3800758609250886, -0.334523985410192, 0.07226150189629055, 0.29919175962161615, 0.2957222738225723, -0.3167131595470367, 0.015192467918436425, -0.16536692900480043, -0.4304868100538247, 0.1570836435185603, 0.0825735052971105], [0.34555713324883053, 0.46224866873886394, -0.40194664052515006, -0.28142804185410275, -0.1005159095645467, -0.25095014413436056, -0.19652655894390503, 0.0604851575289308, -0.16383897258320546, -0.08438788665543862, 0.33100813131529994, -0.4649660948513862, -0.06263339019671044, -0.04890872471900132, -0.338128366563786, -0.1610281982930426], [0.27421904660767293, -0.43078833131702654, 0.3633733414323824, -0.22869835911606085, -0.23324376170536631, 0.10217279536052737, -0.06812512405117743, 0.22858357195975987, -0.43602331030135966, 0.37718679815889544, -0.27892271075638564, 0.09741784606543835, 0.15425348711350884, 0.37228636650730573, 0.38079022458115563, -0.29759704202020354], [0.1544882269453639, -0.24997757463237824, 0.39936177951214746, 0.18753475589309743, 0.38222745860865404, -0.2508434177972566, 0.4680274626409068, -0.20175273766776725, 0.47623237201721846, -0.03358220512121801, -0.2302199787720398, -0.44138027094884624, -0.012803997296339076, 0.3739206604569796, 0.03402149930243148, -0.3691435569877639], [0.3451717917637236, 0.3585338942187247, 0.4024647503431701, 0.3650959342827651, 0.4065752666722616, -0.43844324130228896, -0.039789640748873256, 0.07316137542894896, -0.14396061811677707, 0.49855469517940587, -0.03946268931785046, -0.23081301752827876, 0.4414349085106277, -0.04458548766302095, -0.07899787352587895, -0.29973783695623], [-0.04384605914952189, 0.26239882270731296, 0.32409664642198843, 0.07021030619683621, 0.2801642575679981, 0.39563230340365874, 0.004499621849319957, -0.33356380600330027, -0.3408605882002258, 0.2907786240401071, -0.38887627992627205, -0.04102699862727266, 0.25625232407612064, -0.17496199379743138, -0.3761040832861585, -0.18712427278803057], [0.13622539191974092, -0.3553440273622983, 0.22571271069622012, -0.3214195460515885, 0.14978573245644422, -0.1019198423213572, 0.0935108331891974, -0.3627887719253352, 0.48855759774009133, 0.23879619787402528, -0.44413226263172345, -0.21081869031823475, -0.0730379931126528, -0.0379000894492032, 0.2526628170232964, -0.39953471525774087], [-0.3115768616949366, 0.3682423210988235, -0.36704218691620905, 0.20731443775480918, -0.2850103097490828, 0.008322931676022494, -0.4308119343709178, 0.24758710058176192, 0.28558831747124935, -0.3489418557529792, 0.22554702458331266, -0.1279698215294809, -0.4753271816819583, -0.42421549849710516, 0.04925419208765569, -0.3373913515640684], [0.3696611522648744, 0.20593072799072787, 0.31080311078440437, -0.20466850142846915, 0.27514376158650866, 0.27076501371524764, -0.2617017885681451, -0.2949087709999144, 0.3581452166043919, -0.3682600010482824, -0.1272724744621695, -0.2063366271024656, 0.2453541614795448, -0.3020231714390128, 0.3476863451525568, -0.05254100676580464], [-0.11204923011295354, -0.4542642496766103, -0.22209168492472653, -0.19927872732552065, 0.11717669704953515, 0.3879527602128038, 0.1783043894336257, -0.10610166130888332, -0.31651868703105557, 0.2024884025061695, -0.4130318709253451, 0.031977501397873476, -0.1403632870048388, 0.22976862750601468, -0.24138313942137468, 0.21516062000857716], [-0.04731872186538422, -0.4219165085940666, 0.14330098926982415, -0.41662704385189486, 0.2972945667575748, -0.04916377790849402, 0.3767146039942332, 0.19859581327538278, 0.27403717544158335, 0.4228246612724669, 0.37592585306249127, -0.3164033420876211, 0.4945627165001272, -0.40568330912259043, 0.07718583570359527, 0.25893040043341164], [-0.4446466905019716, -0.023873408303529797, 0.46882475116611266, 0.31265847327269036, 0.49854663290242296, 0.015250760235873462, -0.10361406431663212, -0.3186180890006235, -0.47046152558298837, -0.13547299486712105, -0.07335232036039552, -0.26857059561723295, 0.3367168771760818, 0.021472605010495416, -0.1300025646070887, -0.20673538602867136], [0.22784070352139352, -0.11267472926315136, -0.2190446546862883, 0.12937212774503115, 0.3971416975730554, -0.21380089875919783, -0.24879607573002638, -0.4646080566174724, -0.1752789346375111, 0.03531045244359776, 0.20607377042862907, 0.05520257188469113, 0.37000978931416917, 0.24354951010162373, -0.36707702258342656, 0.4060675474415937], [0.20268002753727754, 0.2806213895281283, -0.2083459691029027, 0.09898011009095642, 0.337440350921012, -0.03214639099473582, -0.13777103584674888, -0.03245195504562337, 0.04507875272911621, -0.3658087244280528, 0.26565522103118233, 0.4877974545456998, -0.38138866281477657, 0.11537263899953754, 0.1911086316647389, -0.09134687784866902], [0.2085950265105222, -0.385543293692975, -0.23031651856882107, -0.15779414466515573, 0.4318593771980981, -0.1301867425005111, 0.42098857673749734, -0.28156991871654147, 0.2244351557969606, 0.35924241562328163, -0.4844308451867364, -0.4643610127826081, -0.10437462224049487, -0.2800840688945395, 0.368386586361093, 0.19037349148780602], [0.09430454581193692, 0.0394008130704292, -0.36779117432342745, -0.057750350880450885, 0.2612305636303275, -0.27364160204236754, 0.48843883349862327, 0.4314318678984843, -0.17806775095002736, -0.07382529275145544, -0.1924049894508022, 0.45289158072441194, 0.2952853226836557, -0.3854420594996647, -0.2644016930287101, 0.42829234619004797], [0.3273474907551476, -0.3851014405492421, 0.23617328053671305, 0.0265834316528184, 0.17272797398470785, -0.24585154024225986, -0.3526081848838759, 0.21610098157711433, 0.41275293955146375, -0.16656270755667713, -0.16862851177002713, 0.47243654908489974, 0.1965990875301623, 0.0788261913165269, 0.33944337124134394, 0.15608473723925376], [-0.0364776116543265, 0.4896870633292161, 0.22307987070598612, -0.06813338515510936, -0.11116203965403249, -0.44965558784578796, -0.3748883834558675, 0.05397675725589013, 0.35059828747192023, -0.1061801165421905, 0.29995214718822927, -0.07814979361618046, -0.21451107720939244, 0.014287019191204675, 0.005133459281798758, 0.3650551292712396], [-0.15453068021796468, -0.19206335621989834, 0.050733749410702744, 0.4948631383811689, 0.3331280759082794, -0.4426866310157609, 0.38960438930806895, -0.1719611379635667, -0.33955396223119727, -0.028328070824208296, -0.3821943275855688, 0.47594828338610695, 0.48618730808236543, 0.3849375001623332, -0.3479870297982971, 0.24790351081405992], [0.38573345412569227, 0.4455432306932273, 0.3321068922370748, 0.03312468130038515, -0.17501840913497946, -0.20224146117548858, -0.07755217641246659, -0.3022210553158826, 0.33799434805601114, -0.23624591787693494, 0.2964926762674319, 0.17185742032350249, 0.07294706460589695, -0.20887647869703474, 0.08584879399976042, -0.0991724721572601], [0.19204054401350334, -0.2502335793645337, -0.36069540210991224, -0.17593891641190817, 0.4093893167501349, 0.3279752600362681, -0.2734178299928878, 0.36847715905489464, 0.10681772435042591, -0.07796250675783878, -0.3002270729491765, 0.13478498494102809, 0.11456339334420951, 0.38871048128241803, 0.1993290618801714, 0.055782024905444594], [-0.2369752853489162, -0.2829656362254802, -0.4099519493085628, 0.32788195983491275, -0.19803121362893616, -0.41681935573533047, -0.02091297042855844, -0.31504026230175053, -0.05395626651983443, 0.37837080968648507, 0.041102925500254184, -0.16795075863596298, -0.35102834837676034, -0.2930108623050376, -0.2579642169066637, -0.1722972057397335], [-0.25741501843890646, 0.05128528675623212, 0.39640889865788886, 0.40728681438790015, 0.17797344424229333, 0.1539210712762995, 0.46719960754219425, 0.2023533333571852, 0.3727733517718983, -0.10691980281889513, -0.48688373198634094, 0.3814763094057656, -0.23282905134274, -0.16173214915423362, -0.31165377975671826, -0.14574996504510174], [-0.4029075126707409, 0.4468494763185864, 0.4433629854112302, 0.12093613357604804, 0.13029098710936216, 0.4700799068249284, 0.030929912034157403, 0.04963518247674081, -0.031010540694208943, -0.28689336932547793, 0.08998320618687528, -0.1380872345584957, -0.14074822719754587, -0.4887476492780136, -0.08305587770920664, 0.10605270629264951], [0.37572486686717244, -0.46265471073111764, 0.3296892516863361, 0.3554221597396543, -0.4775323868182034, -0.4986972435359458, 0.25593379741132893, 0.1843316365635682, -0.42938765295065584, -0.3377830371347602, -0.10026529990893207, 0.1573917193327704, 0.32945372387358485, 0.044097566633801266, 0.3187875913874799, 0.35448466392199496], [0.10563550386828013, -0.11657213074754191, 0.32607811298627387, -0.46791620306069603, 0.2482052567610733, 0.4922260867528693, -0.011024662526887163, -0.4754880188220608, 0.1837338018070841, -0.21258754533985402, 0.16433482230119634, 0.250406736464743, 0.06166823464211757, 0.3902259288043062, -0.4323902132676605, 0.44790292561503875], [-0.11446846576238401, -0.008971530532542071, -0.24917221820777447, 0.20097425561428706, -0.03783355171215563, 0.16670900272315337, 0.4692670438027646, 0.141658897426163, 0.42827252210035827, 0.36685264983512944, 0.2542621202780093, -0.10853805837706532, -0.24714120368334003, -0.4669213676610403, 0.4766291094850418, 0.08730783699216804], [0.14053871543076135, -0.46698110794401093, 0.16958353619433686, 0.19733415895475448, -0.3740691873934041, 0.37441980952075804, 0.19623953452556464, 0.16335737299348663, -0.32802151308897887, 0.12855323960520193, 0.4750057611388402, 0.24016664809688815, -0.09938105738978043, 0.11289644059413828, 0.040037417480875304, 0.26368847597108047], [0.2920776498772596, -0.0009941702925705398, 0.34448358276072566, -0.023172506072182464, 0.033755912581646674, -0.42293462255409153, -0.05172773488343285, -0.209843672435038, 0.2587753082877975, -0.270465540078876, -0.3917135706116337, 0.42044920840379285, -0.17631759753033216, 0.4944533680282548, 0.3791370131028313, 0.3422953062522247], [0.18781964342211854, -0.050720167979518616, 0.3005205533850902, -0.03203043895881419, 0.3845781070406892, 0.1694436245221418, 0.12413456001858614, 0.4011647137389509, 0.3174979308078407, -0.2410483417249475, 0.24254571973036698, -0.1719694786194177, 0.03642358271763335, -0.01223921552825391, -0.356004809403314, 0.038231828268601276], [-0.18861363163015266, -0.37573527948792595, -0.021211407796387194, 0.3033367429128666, 0.39632147884223845, -0.27978713884381046, -0.0701700045870246, 0.018191886694071235, 0.4796591168104143, 0.25566621742232476, -0.4931091393813367, -0.12144470304499622, -0.35097392713503306, 0.04075489669702426, 0.34165546782981504, -0.09098266499106233], [-0.396232988286671, 0.3046668238466368, 0.45493254023532215, 0.49946732431262386, -0.39627744840469603, 0.4877263031545692, 0.1759970570717968, -0.3125267582851107, -0.2429047471365685, 0.39318925314301434, -0.4822519385873726, 0.2983167286094107, 0.03320695095259196, -0.012949309853913848, 0.3643452220296335, -0.3582689812670724], [0.3396571575692495, -0.3842707027812542, 0.09476229454257734, 0.4484948340607472, -0.15045242935461822, 0.12669876016369808, -0.21439153728329208, -0.05654222245665552, -0.3658238865444945, -0.2854615664868012, -0.004361503402004474, 0.2950429710468988, 0.3413613241006894, 0.2253290901899374, 0.33580713724801026, -0.25951274794016743], [-0.23287319050985844, 0.25271038833648984, -0.4076264276953827, -0.1879633718724537, -0.07663960879253073, 0.029872265106556717, 0.22534670278715851, -0.4103227596429183, 0.3471424837273167, 0.24002367432842142, 0.4581151746830687, -0.40751485076235605, 0.10603051902256388, -0.4638053653659836, -0.1784025380886719, 0.47154453700472], [0.4994787749148025, -0.26780041764461593, 0.08965906625187259, -0.25649272908409504, -0.0983909720473446, -0.023429649408887476, 0.42478794422030874, 0.4520980859693211, -0.09923474856523751, 0.4120364058463688, -0.056471191337123416, 0.12963333619591877, -0.2855976861359931, -0.4133860866374862, -0.1558878504358866, -0.23602817613346105], [0.35671441203133925, 0.44873830970502804, 0.05769938447817624, -0.28452073569376446, -0.40868505775593167, -0.2217541084834459, 0.44547238495794805, -0.4277354677642764, 0.4811335047823516, -0.25265323771218007, -0.3894247590324028, 0.4236197943296024, -0.4066804193083916, 0.32187051335799877, 0.49140487616093, -0.39697506268231164], [-0.04494025275702174, 0.3947442162702466, 0.13829519658041656, -0.45398838913519735, -0.43310107143991083, -0.20862566244206182, 0.2931822576622356, -0.012651497971448933, -0.21311434295846776, 0.3674616927354343, 0.14815258218936467, -0.4390149937286455, 0.15399695624630128, -0.3534099802650075, 0.036952938019492176, 0.04404917599596525], [-0.12631568153414052, -0.376317986094709, -0.3401119427502166, 0.31224241544119336, 0.258154382929462, 0.1304943360027011, 0.10457651450411776, -0.08820776867442004, 0.20965931245094982, 0.31423790003745367, 0.4550477681685948, 0.11879016990512847, -0.21922388893319622, 0.06874200802018993, -0.21991434610219018, 0.025890909678340512], [0.38759139888390914, -0.02852049474995555, -0.06412946659349972, -0.4388200868796851, 0.4112188625758668, -0.020969944357618786, 0.23835701736432602, 0.13981874446176168, -0.20147203720706908, -0.050350277032228496, 0.08320309271983473, 0.12232027118691291, -0.4758882129685559, -0.3265635775257082, 0.30532793887441134, -0.4883524447428169], [0.4530450914894967, -0.01904003249661801, 0.4771940837343065, 0.03612597423192776, 0.02118200455005015, -0.4720150835162088, 0.03898123969649114, 0.08716644807574936, 0.46674869524443086, 0.4311468199278615, 0.4477571319281418, 0.11736474363979377, 0.36701771683142537, 0.17742852704666723, -0.48788538276252924, 0.39240641525718023], [0.48254000311528544, -0.19350006159257283, 0.29499153785466603, -0.29927255554589316, 0.3226902812918344, 0.22968727721124538, -0.1307509430107856, 0.20992291828649967, 0.14764148011946665, -0.4249471667202489, -0.34938695762693395, 0.45475849289178116, 0.4179489540075053, -0.3136537018087129, -0.45729456956360626, -0.041655055266212826], [0.12661404660634212, -0.45153495849413605, -0.473671377133987, 0.004380401266674383, -0.15290434331919045, 0.10154084744187364, -0.22270040318850115, -0.2941519660602713, -0.33983177800902453, 0.44006956059639446, 0.30697334357127326, 0.32335984213677726, 0.07861853291157805, -0.05101295710761544, 0.0532440365364385, 0.42454447557483], [0.08628143110193187, -0.2940676853497033, -0.10419599099559163, 0.4373433113164156, 0.4874508921804339, 0.1927334364647243, -0.4605676765406205, -0.3591419823699743, -0.47844266399389856, -0.17561038667764972, 0.4032324226659504, 0.3867830836337687, 0.24759104858148617, -0.016307290278935294, -0.4208563277419206, 0.15742806631854156], [-0.479302497528834, -0.28927584389176497, 0.3573244171461386, -0.26536874250683207, 0.12668597845932072, 0.34326538877283574, -0.4054198515739438, -0.24906154283538107, -0.37552518529354995, 0.3884084010020228, -0.37320540782452616, -0.41619792939393396, 0.2709022997397392, -0.3644958042206018, -0.27751911338284785, 0.010103651828068494], [0.34132295631674403, -0.48498537281099074, -0.1347591031713018, 0.12909879374856836, 0.08812999267310562, -0.37517117617668094, -0.31894743687387583, -0.09463627940926844, -0.07910457525270065, -0.06277557710879866, -0.3260792268293258, 0.3807230413907511, -0.34493457180459175, 0.19156684410145386, 0.3751626296705787, 0.1237036019658534], [-0.03790104852279863, 0.08901432240271434, -0.461349257057142, 0.36093994224241965, 0.22656388003073336, -0.14011309413927697, -0.10890649786615503, -0.16304310533389033, 0.38706366450656615, 0.04590799027981407, 0.4363315506295192, 0.27015819415712716, 0.4078345938485197, 0.350900829005361, 0.25591231087509525, -0.22975201801205636], [-0.3383122394297784, 0.42026906529660624, 0.1212233096417451, 0.2007519874410979, -0.40786804722561565, 0.2423751408056919, 0.27458057947961734, 0.3713993767132383, 0.01891202091269728, -0.37679024954565565, -0.3306445792826642, -0.31532725085225344, -0.4309956340736124, -0.19184790876463698, 0.25009316775861834, 0.24294193760248162], [-0.36356123114436945, -0.043548938389732506, 0.3740013794618817, 0.29232364541310296, 0.08294453530315904, -0.2703050719833243, 0.05807329612484391, 0.12308419089145284, 0.2138138298422011, -0.10928095755392397, 0.36819911239255165, -0.14482091639233585, 0.24075012898261872, 0.35774862322361367, 0.1488967656577227, -0.1782032656476097], [-0.15511229892911338, 0.4509580833264918, -0.47441780590589366, 0.002487634844617337, -0.4961012396951825, -0.3223978048853746, 0.498190283600067, -0.4859741635382855, -0.25976834117628345, -0.11665101769120201, 0.19313057531800004, 0.06029342127367099, -0.46219235292198346, -0.32277773042103697, 0.4726656271196391, 0.1597918747337661], [-0.2415448928453473, 0.16271226981278963, 0.2866312797690268, -0.06594805255907565, 0.4052240158458881, -0.3898845408679754, -0.14491777798044347, -0.46117186268578114, 0.487270165740595, 0.3410812598271361, -0.05260579436176138, 0.2647610201855174, -0.2880628523444313, -0.015045309551518393, -0.053074425273114234, 0.15301280604952006], [0.1508726300665011, -0.3434504415854369, 0.028987804123404293, -0.2690582660399885, 0.4980193050603464, 0.16411940810110337, -0.3932055716825874, -0.22502540002474702, -0.28589321102513754, 0.054508934458600944, -0.4034427431422649, 0.002002300361571452, 0.21102444594349434, -0.46015356532954155, 0.2939149287630517, 0.19557028493817885], [0.4912826268558964, -0.3931581347956473, 0.18204454351218635, 0.4725709987271196, -0.3515660893851472, -0.01645215941173861, -0.28615261708342, -0.3939067429983568, 0.40664063993200983, 0.2706188505725924, 0.07214985390447481, -0.4696744799553576, -0.0016045480552379088, 0.28850336672512655, -0.21114055627137107, -0.3851382272944579], [-0.41662966317505457, 0.2946162159074087, -0.28410679242675085, 0.13121018977312793, -0.3201458255471238, -0.4846657879000935, 0.0456864107832512, 0.07999677831527474, 0.3123298653335048, 0.029728271736710554, 0.14546148814411075, 0.2629841951323423, 0.2186705493862714, -0.08785635093295507, 0.3102328984052358, 0.4588287802012391], [0.0023795459735426183, -0.4933793245772946, -0.06533547522231031, 0.12650375279727577, -0.3269807923343515, 0.3533257129832743, 0.3028468532903502, -0.2266859292437896, 0.14765777436417638, 0.4153362788652398, 0.33429313801183413, -0.3655084578436172, 0.2791160732868516, 0.4434551377728372, -0.18945354004572024, -0.35977711790448197], [0.4903776017495485, 0.4198609460300049, 0.401446410235507, -0.02766609293665978, 0.03614602098880548, -0.11559406077339685, 0.35990784481240157, 0.1817745081207458, -0.42320490926472565, -0.06574335794881525, 0.15965891660125853, 0.13158689593286255, -0.1846180620032445, -0.29418840117817324, -0.18126511935199663, 0.08644073196706226], [0.2779263362526977, 0.30659397697825896, -0.3386330960815328, 0.019918726140321863, 0.43980600861556374, -0.19538594784319896, -0.324451474335003, -0.3841575472485871, 0.38834030320461554, 0.27388536416953635, 0.37094420681702756, 0.46508365038023947, 0.43209232560565325, -0.009409683817605985, 0.038776119591364844, -0.4337212109800427], [0.065040216648104, -0.1092530790659273, 0.47780233097827485, -0.2653072706316508, -0.42109379168901084, 0.017621861303101283, 0.4929492668931932, -0.426959462018765, 0.3398971519156545, -0.3485103598271301, 0.20057586851918485, -0.414449563770402, 0.08270324806140972, -0.22131619551230675, -0.10095906813958222, -0.48604390244559414], [0.09693541320885501, 0.11323281523935935, 0.49204956727165317, 0.10434972515545604, 0.0314237548296854, -0.171605293624433, -0.32187537978210423, -0.2453288872328181, 0.10938077947008573, -0.014296469948736679, 0.2323008532815184, 0.35709772262901196, 0.4933911024761716, -0.4281415190364186, 0.43094322663606477, 0.08653407693902426], [-0.22590310544590608, -0.3840069353076834, -0.3595016516999374, -0.40589937181253477, 0.26498278788016594, 0.48466420732479765, 0.01746224689044129, 0.25256791734346695, -0.28034481139064393, -0.2534547993881269, -0.01930514408196926, 0.44486261946489636, 0.02044738199346996, 0.3772495049317456, -0.09812357194475574, 0.24151005550754245], [0.40220883225349413, 0.12171548961361589, -0.13160166365345127, 0.04953922190606874, 0.07248628543917068, -0.4439801433113042, 0.23341643895871678, -0.24680052376534478, -0.26534763377619364, -0.469662419852244, -0.056761564307214685, -0.15783469616690482, 0.0258916757153419, 0.386004053493625, -0.07535412673592057, 0.3357653831913646], [-0.07614219862843896, 0.38243738425518514, 0.3441086703115248, 0.4538815346633973, 0.4399800164134241, 0.44013063317032486, 0.29404485124688884, 0.20020253985502967, 0.2424615431985475, 0.24878876891535529, 0.2619298328638875, 0.30364575881951017, 0.17222293397268673, 0.39967843064888287, 0.3992705329278602, 0.21562026702799808], [0.4713160558950823, 0.1268439576673508, 0.44229193611468975, -0.07014068456731692, -0.15002511444124833, -0.022438083719399815, 0.1936870091911428, 0.22322935288596124, 0.3864442606729437, -0.49099831782784, -0.07340917684625503, -0.051851056123927264, -0.014731750047646375, -0.12489712330975222, 0.2801922389827113, 0.47368419861523536], [-0.17248658259920702, 0.1398202544767354, -0.25100724622297144, -0.05891872531444997, 0.487692602010678, 0.1214658436977234, 0.421699094773922, -0.39268611008320375, 0.08525758361673819, -0.38132691325192347, -0.11085617920889956, 0.018150359662744586, -0.22242396154713284, -0.13299116075450557, 0.4399170257977759, -0.31745606801399706], [0.3603482014213265, 0.22626078594879329, -0.2766179853142642, -0.1772332008250861, 0.3152510542104715, 0.43656170820826745, 0.27973863342486704, -0.4543591827342519, 0.30296159677919066, -0.39409389606572687, -0.17578418344263524, 0.08902299188423546, -0.49761952013054, 0.41735551518235425, -0.023560120451894706, 0.4154631014952125], [0.09090584094086451, -0.1496145550113973, 0.10427838998051109, 0.43496864666924073, -0.4370256230889933, -0.3969332300872317, -0.39900763573013254, 0.33296780250809943, 0.33932252606249436, 0.47568372090032596, 0.13379602700416182, 0.1318550434373681, 0.027223679129445566, 0.3838828068609157, -0.20798677310912006, 0.21285559313267033], [-0.49717041416915464, 0.4803359002873012, 0.23515595932681854, 0.0946785435639722, 0.2561815395896718, 0.2822350805032149, 0.24416091897729753, -0.15945658964398524, 0.4990341426468933, -0.09359374517313468, -0.13629393784324217, 0.2603698419980044, 0.03256814357407767, -0.3879159081950232, -0.11747644321911566, -0.12822577636361787], [-0.10444577717344028, -0.3187090766647701, -0.292308116109514, 0.1416494728190555, -0.3128028905854665, 0.3138064452245023, -0.2406743197237894, 0.1303901284808352, -0.3373592639513703, 0.0930512614414255, 0.08854753877790045, -0.10950026276819635, -0.35906519341856546, -0.3599899631802227, -0.48594909697789457, 0.4733340522163475], [-0.1440570264786023, -0.19428591049412958, 0.400906558764642, -0.4476814144692095, -0.05478914578287419, -0.14752565679924867, 0.03152305172905234, 0.4913037333390753, 0.10849195496733621, 0.08627974196606136, 0.36474512877686094, -0.20616963962664214, 0.04904781850390083, 0.06453935788472831, -0.08556899063979384, -0.05755392550079619], [-0.30099488465512925, 0.23023077177126694, 0.192668876815708, 0.4443564361678922, 0.4162129493485969, -0.38136128868155983, 0.21000823072376673, 0.3052089279442465, -0.37802475544954595, 0.31228586103228406, 0.05529338780581716, 0.26963783165502186, 0.06655349790957843, 0.35813289128596903, 0.21596921276127845, 0.17496723879333587], [-0.47029629205985524, -0.36366373119648476, -0.4999990965909549, 0.08331502914576294, 0.16027515006620585, 0.09699989806544129, 0.4403304163995506, -0.13379001925058376, -0.09848169970374177, 0.18645039437412259, 0.31609066899528326, -0.45454775085683363, 0.4614093106435384, 0.4585396276570265, 0.35518222578097036, 0.4536484815417111], [-0.10432178503533984, 0.14173786194177418, 0.34895731063274016, -0.3985982296619818, 0.47082131099235336, 0.46660351868314, 0.02233039268039705, 0.3831284368489797, -0.21317847603878193, -0.04581011522320233, 0.24336546796384073, -0.22688658228959624, 0.4371023860016757, 0.2999771305971656, 0.024289084352199675, 0.24064181935563644], [-0.44229753539229444, 0.1348297558473418, 0.07932203704107643, 0.11855982963301426, 0.14004647617299715, -0.07920540277358445, -0.1017149645254094, -0.37912690270364435, 0.04582468657108574, 0.2112727563234289, 0.23538203157233117, -0.3110756533037202, -0.304820184792402, 0.0757639702126166, -0.4168761483343213, 0.08930961650365521], [0.1785713240004333, -0.013686051995540738, 0.46844437580525655, -0.3227235709553482, -0.1925985698047068, -0.3960475766840801, -0.37382895199705146, 0.3347911896984581, 0.13702297895041748, -0.1648464424800894, 0.22261525508389646, -0.20620818104512606, -0.4960439457659034, 0.46435052137166377, -0.04307736646429783, -0.40204155939225084], [-0.005426451172764857, 0.34198089428836176, -0.0032214600571788266, 0.24443939767694267, 0.22877927570961465, -0.2400102216477229, 0.1697837203614836, -0.3940331255359937, -0.22268911519171963, 0.27069696501467666, -0.40490322884873575, 0.46137712622523464, 0.47888993951104586, -0.20062315871360614, -0.03818816060577079, -0.29093118773917037], [-0.25833665414800167, -0.4812686923632298, -0.06095148308386855, -0.07941063134850512, 0.12330947614921284, -0.0920693749158914, -0.3796836336606285, -0.25429492014591415, -0.17338375738649503, -0.46675073484981044, 0.27229948366361445, -0.40061218161242695, -0.1058971029874608, 0.02422636432027836, -0.10590509437128448, 0.47169462166701415], [-0.17610789451230568, -0.45416013630212937, 0.3415711252846253, -0.35463586031712724, -0.40068332873690704, 0.3697343029631469, 0.014744121674361899, 0.05398236274725143, 0.11003467751571994, -0.3409446559951034, -0.16124642226417396, 0.38217229417543186, -0.494712652841904, 0.2319308034143237, 0.17644389204700928, 0.00414779746650773], [-0.1534179174630007, -0.4212211271136772, -0.4142231856418199, -0.060684892123352485, 0.39592465215430594, 0.4367969955111598, -0.28583998603907457, -0.4113346673122049, -0.3941514766287768, -0.12166846882147508, -0.08756441586977215, -0.495709047639625, -0.3137996686202149, -0.06481496295099498, 0.21450762380029753, 0.26443949159359925], [-0.04153206307685653, 0.22994527379290974, 0.4678925301085578, 0.011516064169101226, 0.3441929718804342, -0.22633168464622766, 0.37889815775102687, -0.14185512438010672, -0.04045553049729678, 0.06828378334721108, -0.15270150302916063, -0.010085683927891331, 0.2861338292352945, 0.4836327381266523, 0.3901659558087429, -0.19142977621169766], [0.17246376979189748, -0.4426970842174135, -0.32961162004884204, 0.01763968701585461, 0.3252931829715964, 0.25002845686382413, 0.4494357540586046, 0.2981345949652746, 0.1963135287655603, 0.012509523808120315, 0.031196677314946908, -0.46894687014808445, 0.34283201655764683, 0.4793483696603337, -0.110404345333741, 0.1610880733075436], [0.04540321454366458, 0.3633798559279908, 0.21843117659784428, -0.08885017482224511, -0.24819777003085453, 0.050586166455872994, 0.02977320545441975, -0.24982050750094598, 0.06426851628740371, -0.03363795903004008, 0.39001800237119255, -0.47800232427190703, -0.0928346722996708, -0.39721374698713074, -0.2475856011264871, 0.45116855592242744], [0.028352797713084743, -0.22162976342180618, -0.3353954429576026, 0.10243891195175692, 0.06762706043263644, 0.20287577655030986, 0.4738578018361469, -0.38772057947384764, -0.014240566249355324, -0.45319949589105457, -0.1574945988677795, -0.23453374318599074, 0.3577018715613941, 0.024575180277435105, -0.21533328136622065, 0.20936296269095112], [-0.08563891009666358, 0.18492785351697405, -0.3974891844931975, 0.33138309652923736, 0.3646938919536631, -0.3642400741171441, 0.35872185091461006, -0.2719667271307389, -0.31859121051559747, -0.004827754131857209, 0.49058627455803405, -0.07229825568873827, 0.3151281985463765, 0.06712431594019275, 0.499711111670636, 0.056799949057074084], [-0.2507811041352983, 0.11112813757361784, 0.4233462125536611, -0.3381159409615866, -0.08696191731074632, 0.07788436981363211, 0.27167435789837757, -0.09357229890012053, -0.31638448288924803, 0.010054251267635816, 0.4839471667186739, -0.02069163522877837, 0.32153536903173374, -0.03506927094646051, 0.06302488696620578, -0.04977219961104129], [0.4971043163300136, 0.4380272198962547, -0.08218820590806886, -0.3443756005342773, 0.03460650199014337, 0.005843279954620417, -0.4381184579484856, 0.4066346658456037, -0.004647868946521805, 0.39569765664822276, 0.11090630526107748, 0.006268160082976149, 0.08787639524904745, -0.023756195992364115, 0.1213375467055352, -0.47206788923336307], [-0.4453601885617722, -0.36140391359552315, -0.2558774928978865, -0.42208521366773677, 0.21107570892735017, 0.4898977299666698, 0.14366817333909876, 0.34086035062059683, 0.20832664617766206, -0.23854676810909858, 0.014917619934683102, 0.10293896939269187, -0.39862936261402937, 0.49584446990444186, -0.47208937856761024, 0.40806811694115785], [0.4541304277624717, -0.02274025675232183, -0.12742550061694524, 0.4064455668216589, -0.30824148307508714, 0.2416543070136361, 0.30654031145994, -0.2597253979947717, 0.25938254895680224, 0.10093112932040349, -0.09496357592601612, -0.08204265328300875, 0.24417795703904033, 0.15510395069562122, 0.3094695628714561, -0.44006512355782323], [0.05667780210647022, -0.376659791183073, -0.1676486359367899, 0.29275128502558745, 0.3366957628980094, 0.15102035041273576, 0.39043188354406244, -0.45637211794501953, 0.17094421760073142, 0.008984712457620336, -0.21473228294136115, 0.042726034447656214, 0.26857321015764846, -0.3944293846283561, -0.3118526194426019, -0.24359317782590784], [-0.2995913207059633, 0.1651937628257908, -0.06044360657213266, 0.08162860112005166, 0.4712275453057001, -0.3355913353367419, -0.3720398822174248, -0.005220720643834387, 0.39695906620773747, -0.3624983293116517, 0.06078377156179693, -0.2098427605651504, -0.1851040104964995, 0.36205766827845687, -0.2851182663319206, 0.28560304298652905], [-0.19067214435439095, 0.04640977249952072, -0.2695029772518813, -0.17642199376634127, 0.19890264569275784, -0.03262570725540537, -0.47185772927886005, 0.3825700664501043, 0.20106131832589924, 0.04175830785622314, -0.047904771062112994, 0.18546688468790917, 0.16838543045521104, 0.2515694783731278, -0.2087726683028901, -0.3816281434172806], [0.2230582400968225, 0.179102545152112, -0.10004108079188567, -0.43984585049257097, -0.43116695979156294, 0.03766771297539495, 0.039142629127436934, 0.487653617779235, -0.33933095849699535, -0.4842325559322078, -0.34333061504365003, 0.3109362747090957, 0.4814030060075687, 0.05827277390786101, 0.0182561148674093, -0.20677654842006699], [0.37845936848825357, 0.35242754503355755, 0.013451370312093314, -0.17258143623399602, -0.3860820480131901, 0.37001023264101496, -0.3947898221557916, 0.08157724697377267, 0.17124005528689246, 0.08876221034902454, 0.19134722550569183, -0.25031276386233026, 0.3634678207267903, 0.12337314043580361, -0.13804571760335882, 0.3817646125906604], [-0.43776772603903336, 0.3426329462887704, -0.44408375901556296, 0.28301836606034425, 0.2053124419161697, -0.2196776280424495, 0.09375051154918779, -0.1063684434406994, -0.06944059304868644, 0.40545356651666753, 0.4175976185316349, -0.22679043363972518, -0.041390432055817605, -0.3672665826079726, 0.41138131477120443, -0.4181234565647687], [0.4539562913289833, -0.1430278540536305, -0.2856695838485521, 0.23766681018139968, -0.34022394448875704, 0.4629313063558821, 0.3750491527999117, 0.4854129365421016, 0.2746658532558589, -0.12298779767738699, 0.3997236558172057, -0.2604767911515843, 0.4856723397988434, 0.2373333223841647, 0.09284349427411454, 0.23168683649382515], [0.3774079164570665, 0.08079725399668225, -0.026832500460438613, 0.2977775748339463, -0.4299836097126578, 0.15245286053599705, -0.2440455892086546, -0.33139579586803514, -0.007262536231782635, -0.4247815636666967, 0.43418691465799675, -0.30577167149737683, 0.14831411206980416, -0.07209061374525827, 0.39699882091313754, -0.35235737766726904], [-0.3681091535214255, 0.1999442297487275, 0.32454100251996987, 0.19667036473654154, -0.48520513246114827, -0.2195672148294746, -0.4348300787620638, 0.2585237664037663, 0.020660352027970674, -0.22273229658459637, -0.37630577061075476, 0.09787673941427799, -0.18827010651515086, 0.1096778312737201, 0.06343263383539655, -0.4624491804305604], [0.17152002122942034, 0.48686364545773975, -0.29384986462992013, -0.29239545226475994, 0.4750868435639408, 0.29317463976317515, -0.0755034884763468, -0.20180547129488446, 0.45684536283238, 0.07650385502633317, 0.261153129612102, -0.14621569371876353, 0.03535215132408698, 0.06714548529979325, -0.3991128278823216, 0.4039807037477091], [0.028352844174486358, 0.13383422789594768, -0.25279638107577407, -0.28773436699773447, 0.3858766437833012, -0.13186703868147065, 0.14455946052809165, 0.2870470475395154, -0.40595538292491906, -0.3329995881201918, 0.46333544564989626, -0.39600350857034683, 0.4662990764325414, -0.29039676341784726, 0.29538774592763684, -0.33866083231528865], [0.2957373007521531, -0.33536155967686243, 0.045190875754153814, -0.14008474585681496, 0.16282564700613456, -0.2840196519619277, -0.06174682144376298, -0.28321699535052924, 0.38135610012428456, 0.3634515631752907, -0.22043997306065044, -0.44654539059349696, -0.29659616621800955, -0.49004920893631176, -0.18759137542401216, -0.08648426817376442], [-0.009095350277635639, -0.14052053356090566, 0.3194779204322571, -0.29630477141152245, -0.34489785162473274, 0.4834126693262727, -0.19714969938500038, 0.020348014112250068, -0.4850074479375548, -0.2482093717345114, 0.11070404844040849, 0.17440839419184417, -0.22412434527796032, -0.4463551613003891, -0.2962890713096601, 0.18314328232045884], [0.04873589309664528, 0.2982209922891359, 0.12019419667757691, -0.07944274903815718, -0.2671668465832422, 0.38110402671987853, 0.20335839445699289, -0.4099173707990126, 0.2712654589595903, 0.4238134361327983, 0.23548842915168355, 0.35570163268264376, 0.4756786431924772, 0.04764406722559711, 0.43940113304605966, 0.24358191483615832], [0.18551344647477375, -0.3806717791191905, 0.4982733881839909, 0.10221164577161412, -0.06277169456490739, -0.4033668946798227, 0.37981976009386664, -0.07228282978158751, 0.22535218720558403, 0.4329609734071551, 0.1223333927334318, -0.038867295167056115, 0.09121546999267349, 0.1240887267932862, 0.34669275967509783, -0.26374224167128646], [0.2909026813173101, 0.43125446905162945, 0.3412724921757778, -0.13863037727565697, -0.4927317341034988, -0.4331803548816161, -0.12440710896934593, 0.3576128450586723, -0.488617129898271, 0.08294875757857256, -0.36146180344816936, 0.13707446626445952, 0.07643023308487817, 0.4655206019470365, 0.2221376825151905, -0.23930497087693448], [-0.43344219575150866, 0.08688574882573163, -0.06788905561317504, 0.09790322310772825, 0.10534653133770788, -0.14780188628134971, 0.19482278586677482, 0.43647375177503767, 0.30414243360070936, -0.23897572879856155, -0.13515970164507518, 0.4056754567246983, -0.44282671567163767, -0.28954335476210336, 0.14928276904705684, -0.24147391757627534], [0.21060838633573942, -0.28728925604411226, 0.12047467922601374, -0.09086609288919811, -0.29097149308733106, 0.4705156123167792, -0.005698768459817205, -0.011067940216708982, -0.23852658717878394, -0.41845336704311364, 0.12677073116627868, 0.21467811640080303, 0.4351562594405173, 0.2642060292661129, 0.24666505896754787, 0.10774150575204744], [0.17381946641254875, 0.38866246671503746, -0.35528172319836027, -0.07377565728582591, 0.011917581903419183, -0.006508322077003581, 0.1808395017528588, -0.4345046178082277, 0.0992660193756395, 0.23394086792867985, -0.3641368313579697, 0.18055206041862282, 0.03337037534866916, -0.055560575736554485, -0.25238532295475524, -0.1874906093140738], [0.46616235285454455, 0.09449692714961122, -0.3258951543720452, 0.2498667396977059, 0.08379221159580885, 0.44937788235240106, 0.22235468405169578, -0.03439528031450845, -0.19207393508086812, 0.2533849828346709, -0.3816125591283911, -0.4667135294831859, -0.22674460665129448, -0.417484485622755, -0.11511126281322392, -0.0934269960878118], [0.4088093546542739, -0.33481495600430144, 0.10849471593968962, -0.23371409880632732, -0.20158048957145247, -0.4230808681069771, 0.1385525818361687, -0.1772606759684735, 0.06397216710476561, -0.27022227065127835, -0.2926108597952949, 0.11385005952728533, 0.2012651701351914, -0.23046143936028707, -0.2761849106651896, 0.43987224150101245], [0.1653158535253434, 0.29464255950707907, 0.15335559956299905, -0.25500788109590367, -0.18901416841382657, -0.464522618870997, 0.15147363906099431, -0.050744623154781454, -0.09181350501762353, 0.48137589469482966, 0.2542721350707279, 0.30685087338958517, -0.4828120111533113, -0.136823841324758, 0.15650002351498948, 0.13893898240849734], [-0.3160626149783422, -0.28945393479163417, -0.25657320434619, 0.41260191174100813, -0.22749579255291486, 0.3054432169794754, 0.16846636147152472, 0.14436354788539318, 0.2069453909444976, 0.3379214683188857, 0.21436296240872021, -0.31439005750128746, -0.17215530545474256, 0.18706262347114755, 0.3985441744785775, 0.3834643682752883], [-0.4216031707836333, 0.4514931432017433, 0.37280766555977796, 0.2254539098977879, 0.4645540282509846, -0.32880291012274987, -0.4795775267358019, 0.18629188814273978, -0.0970438424368757, 0.28030976393352325, 0.4139098736645699, 0.32823779460243063, 0.1157955217910408, -0.27962246550828007, -0.26594705458800905, 0.4471805169279023], [-0.14017694308390283, -0.300751916751548, 0.39322620138895237, 0.1277044256278268, -0.35864188561715016, 0.4125297618899495, 0.3644389699588272, -0.15848569029650672, -0.05959255380396378, -0.09210905597955688, -0.40069538710688246, 0.21280605608268355, 0.4210278601475749, 0.46518709694150806, 0.12842184701722892, -0.3418808388876774], [-0.06389920121822268, 0.13423125856515483, 0.15288947157807276, 0.100849192527249, -0.15454821794637086, 0.053348579004751095, -0.14290884406022886, 0.12848352848775035, -0.2617334232473967, 0.4812883844434417, 0.21866739707790273, -0.47550332326566436, -0.1205450684917353, -0.260261200945208, -0.38261347284412284, -0.30610135379296155], [-0.03940363738533459, -0.2094696777099001, -0.4545242856500229, 0.27792477857595854, 0.0722440707511246, -0.04987161288410935, -0.10937170474831415, 0.29994676958780875, 0.2204079368606482, -0.16662457833531785, -0.4391401454072583, -0.3346302897959106, 0.24236321602365307, 0.3227479668903406, -0.4025411106744916, 0.4086575045973385], [-0.2293048302446713, -0.4843994933901532, 0.44506118975913767, 0.4865984852425904, 0.1457971094490157, 0.38114689060982165, 0.3734166371865886, -0.4980257225568341, -0.32225139019530136, -0.0899827034234284, 0.40947400357814967, 0.18159988773894287, 0.2894438534614675, -0.22556594310036826, -0.39749787834266703, -0.30875615935294864], [-0.2697016145443373, -0.3683743522989583, -0.4637160002324645, -0.1215045484467816, -0.042535408560940735, 0.3571444624972612, 0.2433454161572981, -0.2448693425058427, 0.3425480683785892, 0.4117386659564958, 0.11973454636822922, 0.20557569887539373, 0.11439434946502902, 0.4142148796929026, -0.40198303884195563, 0.38896719421230186], [-0.12475563133521306, 0.4666032132352095, 0.12460628339136715, 0.15168091074955703, 0.35292166815273673, -0.2046390967986158, 0.4107084906825118, -0.3721099327196439, -0.08064876358174078, 0.12832148850219594, -0.48879672679857133, -0.396341579946638, -0.3291230094683262, -0.4295880168256597, 0.07469277490391701, 0.19895015761509782], [0.26019973166643373, -0.43118205114115016, 0.16916995226908804, -0.10980303162379168, -0.015902290735352098, -0.281347554192542, -0.07968383006383706, -0.13031167143412814, 0.41114205520864133, -0.03873516330630655, -0.4069665824814829, 0.1156400518603754, -0.14413895905009722, 0.07049021708036896, -0.3831991730200991, -0.3869627919266446], [-0.2099803454642668, -0.055118976706437506, 0.19211012196883248, 0.26472770455177697, -0.11058646014216045, 0.01061173674286231, 0.44435444412457603, 0.1783436984661564, 0.44106323902466593, -0.1345787803219286, 0.056747789509643654, 0.0802069802226979, 0.44272164469908337, 0.15708744174732914, -0.19497220371298163, -0.3767938130759434], [0.39407359204626047, -0.2643956516791235, -0.14980541500435907, -0.3247908910009212, 0.4800777669643671, 0.01712992938608382, -0.2240757111225985, -0.18807930803176065, 0.19461777850926454, -0.4797922027475282, -0.3596777982209245, 0.34950728102523454, 0.188954691203837, -0.032563921477014035, -0.14109568629742353, -0.21414015180083534], [0.17870957185121272, -0.3429708029747508, 0.22945361191070057, 0.24338143103646082, 0.2212425979102558, -0.15557748075574818, -0.016668279977532063, 0.323739770012591, -0.2803026079221447, 0.2109333065586405, 0.07762195459469612, 0.47844797425607766, 0.16913150205072636, -0.21428499288921787, 0.4420188598454744, -0.09601313977981629], [0.22695275927610536, -0.31131973203718055, 0.01809612653683068, -0.31928701165789886, 0.1935377246444142, -0.24131042940133185, -0.37787445836995215, 0.12597953949253193, -0.10248765167532314, -0.48765513201325617, -0.30793101467110817, -0.3267203331711488, -0.2090534802089713, -0.13043755080434694, -0.36137540444368244, -0.24035995004688382], [-0.01682170076200884, 0.07374272160667705, 0.051069710036490634, -0.027799001927326872, -0.4182075017480186, 0.22195886865861725, -0.39586645304151047, -0.4082929135679735, -0.2406324827531654, -0.1100627246610254, -0.10547932137410165, -0.14817091301219332, 0.12022790692070873, 0.3691441245460241, 0.22606059858208005, 0.16460220486550747], [0.39820892221603277, -0.1498042286285075, 0.44603748487417294, 0.16551309523809454, 0.08664504284488606, 0.10004946392694236, 0.051732818944973724, -0.26149731250592634, -0.1241506884357566, -0.3811534337539979, -0.366865612272098, -0.21184202167294353, 0.37642007532366417, 0.23769870815276484, 0.1792859857322796, -0.4079662984418577], [0.24297892057307235, 0.3314596019288303, -0.12613207328691722, 0.28163029858526223, -0.4837096266929748, 0.38375546534949023, 0.1698093719829884, 0.3688075621405461, 0.16985375770791156, -0.48992042603930996, -0.47747945716492946, -0.45369896272846233, -0.19458894933388604, 0.01233258152537986, 0.05051733669738068, 0.4634627509813458], [-0.3845097779304686, -0.20701312113712755, -0.4615605457406389, -0.41230719833549023, -0.25713497258319207, 0.42114984254945165, -0.09136710399073456, 0.31332559311730157, -0.45426036904110245, 0.07373566101444473, -0.07307912238299308, 0.09105667780088345, 0.37958229066406346, -0.46233674820998083, 0.1626262299647101, 0.13553139360213384], [0.18872137657828114, -0.10486560343309814, 0.393755865728744, 0.0715641647731251, -0.42314027003769616, -0.2975547776700397, -0.40949350329523126, -0.1364553881876488, 0.028769685164929615, -0.21810750488511743, -0.30062592347103523, 0.15708493383064825, 0.3179444983039582, -0.29179027096125276, 0.10246520005965876, -0.1173586495445037], [0.38455122938117947, -0.32967885912612416, -0.3808823671575643, 0.35765213769253035, -0.09803710492604556, 0.4695070956359719, -0.40779833674423716, -0.41732792603271185, -0.39751041309035795, -0.48329874216338575, -0.34398857502361546, 0.021293282975421768, 0.19121722304551647, 0.04506283844301773, -0.15545040168882773, 0.17941422886606628], [0.40564241463557305, 0.1797070795900767, 0.29280156391409673, 0.4161131271005678, 0.05364438653768955, 0.023659651397988868, 0.07271174093056865, -0.44099828178619005, -0.19570361855249163, 0.1496975576267473, -0.31729860763932805, 0.47890547100642744, -0.29080133446639433, -0.046309838797584546, 0.32040997423254314, 0.09773070255814942], [-0.08633126675419633, 0.42308938215220937, 0.4116235491778004, 0.017591486152170766, -0.2872297605456213, 0.47235263654910087, -0.3778385559666291, -0.48425244957004576, -0.30429849025838906, 0.1614869426580946, 0.3993181533650908, 0.49071336634837703, -0.29789416172976246, 0.17822880539811092, 0.20281198478499496, -0.27313664589923004], [-0.07160312007537084, 0.11070867966733244, 0.42650895968082125, 0.1337246821645477, -0.13854963312461832, 0.1889415811360604, 0.11728078281987098, 0.3023687633758436, -0.34199406310464664, -0.3607329149200591, 0.32731970143082834, -0.17809276946674246, -0.31127387376087856, 0.10749829388850252, 0.35671613879362507, 0.33612008047918396], [0.29175968826978305, -0.24286970158609866, 0.2710802004473577, -0.24556714744557095, 0.048011443033472934, 0.37221110622466413, -0.44018607836069457, 0.39369913284659963, 0.24982252176827446, -0.12474179589403966, -0.02483876492988535, 0.1820732868080206, -0.49502406586659264, 0.08762682912412989, -0.4734440211760397, 0.2247890375419822], [-0.47297042465220884, -0.057923692251860226, -0.014034291267513321, 0.03813256334714554, -0.4031544739317271, 0.36935315767390176, -0.13606631745556808, -0.16722291306570924, -0.4208954349785987, -0.24581854782012158, 0.4531780892173264, 0.17685877051999355, -0.08502188262721666, 0.4387660859484507, 0.2064139709905234, 0.2919405115342263], [-0.12488074890847711, 0.3182844431925186, 0.21174664661714981, -0.0546289606100282, -0.14648264404921008, -0.261111170609703, -0.1821954364210141, -0.08500584257065313, -0.09051301837303316, 0.21672679963183017, 0.16280072489426944, 0.24978357373022442, 0.4826347214033566, 0.10024482056101258, 0.04809010630496202, 0.37861090424551547], [0.24809498177189615, 0.07560800843827742, -0.24066638702210974, -0.39599726734875895, 0.4115673128937638, -0.34605575932973076, 0.11142066508253945, 0.1326324258425804, 0.4371434671924963, 0.11082234637604194, -0.22996959719323173, -0.09999995392808125, 0.36396976952959337, 0.2771877010144389, -0.10296611132354827, 0.37851756683080984], [0.26876649879248693, 0.3825974518494848, 0.329890349104647, 0.4970796833313236, -0.3060323890036081, 0.20044053691448038, 0.15131471400150187, -0.48798152528860717, 0.3157982311726537, 0.2123268729919967, 0.01857009312163338, 0.3725211720183792, 0.3572654305438142, -0.3675329102618762, -0.3851224971674362, -0.2652180372404159], [0.14776051388212097, 0.1210160771610852, 0.4039531232491026, -0.3919225773801446, -0.2943032309913203, -0.16848819667979242, 0.07846296052642987, 0.2582154712492146, 0.17985431331073753, 0.3563959639797989, 0.22609870942982135, 0.30134375762966636, 0.07285932746101798, -0.2375198367158593, 0.467079067282715, -0.25523175152255917], [-0.019196430757700278, 0.3547428825996557, -0.16767135417540613, 0.2575253649137138, 0.17912366579156636, 0.20196997032266573, -0.12413931276177814, 0.053243783609501105, 0.41777873579659264, 0.3962213874024799, 0.22432145892062494, -0.47739077827020215, 0.20986315420467105, -0.01940087328740714, 0.269635164521733, -0.2309258103622398], [-0.13673310128120097, -0.12535703524300368, 0.401259662566255, -0.07357240427764422, -0.14954701069795073, 0.4585397472294135, 0.3519798828661419, -0.03296664717093678, 0.3542216685974413, -0.2903209828468273, 0.27212483692896583, 0.44011556472639213, -0.28056375827231905, -0.23838475416910132, 0.39793482233051636, -0.45880000676656296], [0.04382913507042341, 0.3013455508647882, 0.15224506142898464, -0.343870102268493, -0.3423538724216929, 0.17641595812246924, 0.024187045238600047, 0.1646142142200363, -0.17543782763614524, 0.20882400991928063, -0.2426806920288589, 0.27469450488991043, -0.4386486515323721, -0.05210865238507756, -0.16850981243832608, 0.49125969977345774], [0.40832058991866216, 0.05554481141772438, -0.3358166273246034, -0.07097654144851251, -0.23227397031902342, -0.18272897553306156, 0.16288686961714927, 0.0023044796121091116, 0.11268207074226444, -0.2657131277274778, -0.3698471491712494, 0.11091261160830845, 0.12727636260132313, 0.3596677460300882, -0.2136942975362297, -0.3766859342940162], [-0.12883373977295487, -0.32233989554772413, -0.3857353423035763, -0.2828465935877109, -0.3131602382758438, -0.3608930728637332, 0.1557302583712996, 0.3093660599080216, 0.49744825820995986, -0.052573901515079235, 0.43468860551913624, 0.13491113394444232, 0.023775510094872332, 0.45766018713955847, 0.03869310450759045, 0.4284197445492919], [0.47336399912179883, -0.4214269704213811, -0.295155912150874, 0.13176515019178148, 0.36687678250334343, -0.07018246062704736, 0.319436613407287, -0.39516736023483845, 0.34051650943771183, -0.47625196222060373, -0.38620789763175245, 0.006105035284720617, 0.2912836081350708, 0.09286816434260214, 0.4580528869155249, 0.192676186397171], [0.4559312290668216, -0.44357895427824534, -0.34520748646678123, -0.31563489757102026, -0.40711929670664104, 0.27647575300345995, -0.427380554776176, 0.37030558018082205, -0.14335766248813508, 0.2341506726939636, -0.36818224836740154, -0.45567828220228823, 0.3465141914611102, 0.40048114290273207, -0.4754199761262631, -0.28948664682080294], [0.07032753865960284, -0.1618490898239835, 0.33189958606729475, -0.38961574231142315, -0.31008006951718503, 0.13479174050370757, -0.006176255484610427, -0.11593091412801648, -0.11939359848408648, -0.19239710010669764, 0.3524038498421247, 0.4090577984929943, 0.0519338964784124, -0.16856852526693666, -0.43586371832326243, -0.00015849188699723626], [-0.24707270563606776, -0.2305699186908302, 0.14155043175073168, -0.16439868135833402, -0.4478824056466627, 0.22717688258399815, 0.22756696975789392, -0.15358162639654538, -0.15975631171935623, -0.29347892105372964, -0.04769815992847959, -0.07040926540237569, 0.31587594458569546, -0.2976613756519083, 0.15173080665206518, 0.4087571316229571], [-0.4694636406989817, 0.38143003748643023, -0.026273413606986318, 0.11801640144704184, -0.03834071377374049, 0.2677134057547865, -0.3211223986486291, -0.385149808473365, -0.14075648789262152, 0.13628975163194756, 0.3397942283938232, -0.08389723970091256, 0.3432155181153431, 0.15314599596583955, -0.14574898535406244, -0.356508378813176], [-0.05785421935774426, -0.42365355101813684, 0.2737992657231516, -0.42369569297008913, -0.03576351272055056, -0.0703730336226972, -0.2236578229418087, -0.17621264244693458, -0.40097690779204853, -0.48202069977498074, -0.18452603157612402, 0.11367213266582943, 0.388942519376715, 0.16106211816241367, -0.46874109491543114, 0.04528894101202152], [0.4590216067589967, 0.46493138923841504, 0.3914861667749151, -0.3338025383854135, 0.13958652563824814, 0.26510157571132964, -0.3992386111380728, -0.4665974419398822, 0.41976583199999795, 0.42221470775147085, -0.28002433302841856, -0.1842808919814637, -0.3415618166499885, 0.21475123515124894, -0.3348800608293443, 0.34157816541747676], [-0.027902174339803354, 0.3224660557988278, -0.3310447329025106, -0.2989903415329377, -0.39505396527561865, 0.4021223609880461, 0.3941908853479652, 0.06478090068904707, 0.4093645502637042, 0.38986095916009766, 0.09676381460806216, 0.22575482385639356, 0.20469884513559622, -0.3639291701349221, -0.1197973154485551, 0.3164935820041336], [0.16466579203746756, 0.07672071823526683, 0.41861728753011396, -0.46909226378404334, 0.1901909433093959, -0.037083389389037325, 0.16559746165435063, 0.26294424433059294, -0.33810274963421294, -0.4136997056250432, -0.409025268347582, 0.06885402985907862, 0.1787522308830365, -0.23522640990711086, -0.2734810216731747, -0.31382948630614793], [-0.20612683818047672, 0.4572341439984401, 0.18790193247041376, -0.017630059378399565, 0.08567423956796516, 0.16016194362631342, -0.45058399373730607, -0.057771668881358984, 0.028963239917743633, 0.253566221622999, -0.10998453518257778, 0.28873693654637433, 0.38942232679519795, -0.42743633043180274, 0.21470425398567494, 0.4890662324862125], [-0.2956345847370754, -0.38402326698962264, 0.40863672550881225, 0.41646712118371687, 0.409051386636196, -0.2554958767378007, -0.04308939994592986, -0.44575192624201976, -0.44441782701514276, 0.3108329610907574, 0.016036849020078847, 0.23521734467052258, 0.08213863790372122, 0.43951285389384986, -0.46943300598330684, -0.12720673696123763], [-0.107158699895477, -0.07584994200549833, -0.3593647493562646, -0.328999316810038, 0.03935685930717914, -0.15077250837349299, -0.3808185997987209, 0.1433856400679594, -0.044730051070473564, -0.14076339496799117, 0.25263947681751675, -0.25764972793008645, 0.12227962953422311, 0.26452235972085303, 0.1295728214864299, 0.10566251880685007], [0.33188101989482266, 0.22612940723861108, -0.49698899519588624, 0.34764421444037163, 0.0585595857803235, 0.46654721923019127, -0.4528351101601752, -0.1575093656611789, 0.39457645024211985, 0.303978999719827, -0.37435528637728344, 0.3823321481045344, 0.3167869058633571, -0.07399700750408023, 0.42853298547829655, 0.26327050037685695], [0.2542782761136533, 0.1371636630644093, -0.4602321310917473, 0.268465077978714, 0.3394544473293598, 0.3020368592993691, -0.237242229433142, -0.21888196688078254, 0.06322934712964112, 0.2878035625044334, -0.16255744796727256, 0.39499535697326127, 0.1229418165774877, -0.19716282012042963, -0.23785584587370168, -0.1536392882198503], [0.2569420374857043, 0.1271883776626579, 0.2613876188624592, -0.11907749598343464, 0.12149970876459704, -0.21063135770429842, -0.36499015220941566, 0.06942058398077655, -0.4381287148381474, 0.29245172714032297, -0.19049941029942097, -0.13692025053028067, 0.010589675070119764, -0.42053421127381974, -0.4150619643669863, -0.029788802495971933], [0.4623355025589574, -0.1962737005385109, 0.3401782874818895, 0.07773701669822397, -0.14114308396093045, 0.4733025503037318, 0.3842065008894209, -0.3024752556780378, -0.3652043158423073, 0.11931692639016667, 0.48648135262103254, 0.1442422051072575, -0.37880571191742407, -0.3895521192671174, -0.21541749343355798, -0.3129562639273171], [-0.42396279870370834, 0.49298627085244584, -0.20549772394934018, 0.47080473483918994, -0.34306870203835105, -0.21365342928508957, 0.13080726866358217, -0.04097579125876982, 0.3539184461990791, 0.35629809673313817, -0.06019844354337556, -0.2567867309568136, -0.045460294242639754, 0.34003424428005524, -0.24690775994094794, 0.13000796518654145], [-0.3341638317540435, 0.32552477858380224, -0.28774841743215396, 0.05112404542008131, -0.3605214429816629, -0.15046752824131093, 0.3751250915143043, -0.19963689284738229, 0.18816602914771308, -0.3023199228033716, 0.3961692658411132, 0.2468736644866546, 0.341599574456413, -0.42492562831554126, -0.09828882564291574, 0.06249670732681867], [-0.2955786541960099, 0.3712524721796725, -0.10332210869329672, 0.4425538083538313, -0.07728860485621636, -0.3205970726311177, -0.11483128014488075, -0.061625331961369545, -0.36948174405817735, -0.09326177820027703, -0.15991450179279787, -0.22297055029563018, 0.25021131014956144, 0.24692479109912746, 0.23832269790705918, -0.2949149408090509], [0.2548278534178726, -0.11561120287902882, -0.026610779127057227, -0.10855188848529063, 0.23117609548652096, 0.282794018176579, -0.27499185197249365, -0.12358439215281547, 0.33386704315632987, 0.38769851286286117, -0.14036999651229498, 0.26379769176520995, -0.17238443279031213, -0.20632587604369945, -0.28713362316955116, -0.24361795805309916], [-0.30746546274492426, -0.008960949782735317, -0.1807001218257347, -0.37913120769567255, -0.1515672153859754, -0.3498106542114936, -0.057117004382857606, 0.4054947802073551, -0.1579442798895272, 0.25391007624591, 0.2290282213940844, -0.20648326902116332, -0.3334220091036003, -0.2137568912192528, 0.49076296346732795, 0.08121769651234145], [-0.40891278458109226, 0.056782268642637024, 0.34156590905073936, -0.16013675932499205, -0.2911584200573485, 0.12706286708184567, -0.43788385102289407, -0.20142277421627708, -0.38861470366535955, 0.2809571442696376, 0.17735567622894421, -0.21865243174587634, 0.31200225367877965, -0.4844535841079636, 0.24359976344125178, 0.39325352097155786], [-0.02477139711403431, -0.17399763876023988, 0.2865897802118539, -0.4624346185853072, 0.36095316835995483, 0.40255068050183695, -0.497360219884041, -0.0003279099586339651, -0.4291734725683499, 0.3974837293973076, -0.294991558963548, -0.16808171361292512, 0.3382402436312163, 0.04807847665400422, 0.2970726408040698, 0.022590322974866184], [0.4403789407448132, -0.012689056492314998, 0.21979057176460937, 0.34132621130809637, -0.12926883316053905, -0.47582678749361484, -0.25056039587342727, -0.2992690809265902, 0.29655100679008595, 0.06249052373312247, -0.29242231945133945, 0.302704051866998, 0.41279467877935383, -0.3994009438592231, 0.46252495047832154, 0.09568407187131212], [0.16690345138431695, -0.4687508687638322, -0.40051578736486027, 0.4266658425995924, 0.1597348002571738, 0.13378926612204878, -0.377444401333933, 0.033508284842423186, 0.3961269604025256, 0.4358390082614645, -0.3406046846612185, -0.4961959965062632, -0.02838045357672503, -0.2432430043255258, 0.05723460412275505, 0.06668627306899322], [-0.36088901443591326, -0.3254633661637897, -0.3591811977277679, -0.12976410310742925, 0.4581883478513159, -0.32045554366415563, -0.16414521479289534, -0.4556895603833522, 0.036444967466636835, 0.42955697045564845, -0.4720119301089072, -0.32707410007829407, -0.05821663796514365, -0.1968260632021137, 0.13405522908869483, 0.48386677443834736], [0.20171003365324025, -0.4885162175034845, -0.43673432467684414, 0.061816461431338454, -0.022533483434156287, -0.19441009218850203, 0.20120590468974187, 0.2470858345521042, -0.1526970848916942, -0.1621656332686765, -0.05538949488785827, 0.13990690441145437, -0.30241558183654127, -0.134753168642469, 0.23113498690192313, 0.02595871460700716], [-0.22677128688783887, -0.48408112636907796, 0.1592793956986467, -0.13268642926638563, 0.1383729799021971, -0.24860019612793172, 0.18839248902176475, -0.31059895794641923, -0.2673800056334831, -0.08613524490015645, -0.28530153013643456, -0.10176539852437094, 0.21610175863678693, -0.29290255358334616, -0.21657703300171582, 0.04957888036781277], [0.05524065835027547, 0.3300511922418682, 0.2946595755186494, 0.3761009414398786, -0.47146604571922945, 0.16885223069803812, 0.0013242847613640363, -0.07543994230556961, 0.4864059428027737, -0.3799272033137642, 0.010093805450500648, 0.3999546635084613, 0.43683485683847467, 0.0001353767550900109, 0.09306861588437054, -0.44919269330457856], [0.0015468150274936532, -0.08164676625538758, 0.3635896914655544, -0.24038590437172103, -0.10859007298050793, -0.10468344172203503, 0.41782603876277713, -0.3872855721878281, 0.12916751023973028, -0.22347828463175845, -0.4085033466331651, -0.05534524177859801, -0.03687601247065053, 0.16111725277847744, 0.4644568286911722, -0.1276218123059365], [-0.32849444940236683, 0.31827728032599156, 0.3131883109174055, -0.2876295010797264, -0.27097599566080355, -0.4013003735486176, -0.019237350566821743, 0.31257342521269704, 0.30123743060320174, -0.4221476666598776, 0.49564099719515886, 0.39252111257217315, -0.2869973926210502, -0.14403296185776882, 0.007868310386296984, -0.11453375126848075], [0.4678332965148161, -0.39278699833640895, -0.45033301432445316, -0.21981547022958747, 0.34760489338306866, 0.15571417611126004, 0.28491160704706264, -0.3239534046343693, 0.03990100871161473, -0.44294462603112494, -0.31447913630955626, -0.27355558840380456, -0.2970108557628205, 0.08735796474373003, 0.2630908665850723, 0.15466136332656777], [-0.2494707075880327, -0.48067184592037815, 0.02050213653199373, 0.16823104107491604, -0.06904873985584448, -0.29467201976998514, -0.4916361512714009, 0.21313446299655758, -0.08412016955984813, -0.0611090629692459, 0.1478128486864022, -0.06496276116258715, 0.29218052400698846, -0.06953936351270551, 0.3225355861421434, -0.196631561815223], [-0.2750256427927906, -0.23661291145600472, -0.12988544257254775, -0.3268280489245914, 0.23969052791825973, 0.0688589438622913, 0.3280072430700014, 0.4153010259040789, -0.35668230349423447, 0.217727015225603, -0.011074747668198048, -0.44188659586736057, 0.050763239574400654, 0.2107859262805052, 0.015509361394716703, 0.13446053478992226], [0.07698600425708901, 0.10861666483143595, 0.0060261923376833115, 0.20942328046602998, 0.2998966380538277, -0.17807919792989113, 0.11611036098174532, 0.017539853532074323, -0.30810356043561393, -0.4397261156215493, 0.49158840975558205, -0.48669030203448804, -0.40982388642518985, 0.22874758245067395, -0.4573455076574098, -0.008689598185507963], [0.09173092052516818, 0.4837043356173971, -0.3988561579842764, 0.11688410610223643, -0.12398498286804982, -0.363800448047754, -0.21473606082938468, -0.43702701561669177, 0.26316116281052115, 0.2467425495821829, 0.026435625207970603, -0.03545996784781669, 0.2929579350118948, 0.004621927375570767, -0.09581469482078586, -0.2090485393157857], [-0.4790124434673898, -0.3914450844858415, 0.26831148614739775, -0.09251265403916153, -0.06612728526795564, -0.00978044432447256, 0.08190606645709497, 0.4179844143571956, -0.4514331034437934, 0.22311534503166486, -0.4132866496342794, 0.23566270015890478, -0.4859726363017879, -0.006269828140977651, -0.09461454351379295, -0.2545029060268633], [0.2290287002464536, -0.26470213518423524, -0.003771624741543911, -0.377842669498195, 0.07056405566321788, -0.08021325779929989, -0.08613200703110213, 0.2016277672529323, 0.3050775581167794, 0.1994900233498832, 0.17119696618276248, 0.14409670373691996, -0.0007271064123425264, -0.473041051501774, -0.34554201534218487, 0.12371992595549897], [-0.44497490235999493, 0.12237713253704285, -0.11299596630073194, 0.14979567064066002, 0.1786023125287911, 0.36331725328726405, -0.1092009455213131, -0.2583773308207933, -0.30230947539106445, 0.42585066595116716, -0.014569101447123423, -0.4634934634783774, 0.2680416591197272, -0.20880108225899963, -0.1543048780253894, -0.4863392237098131], [0.023203056995415805, -0.32872577374568934, 0.45752069990469, 0.23934594361647266, -0.2794021319206267, 0.4673406059235068, 0.4244226092983373, -0.1575892386654717, -0.2917747652038627, -0.20538237016379057, -0.4261830259956143, 0.2080585684950932, 0.3999706090161059, 0.19867562103601533, -0.4296137240749035, 0.17772883026652675], [0.3237382246944096, -0.2992739455221991, -0.4432117554292526, 0.1834260349373137, 0.4864790425983013, 0.06484301455131114, 0.43259020103263746, -0.27270330995010617, -0.44660580870642685, -0.06471388893690189, -0.39205890472931937, 0.20102168323354597, 0.2691010685151244, -0.04171961874577845, 0.2510669078118941, -0.060301333569928506], [-0.05620839532227484, -0.31534423714507986, -0.07977503359958771, 0.09341832229363578, 0.12806015947910643, -0.13151696161063853, 0.10635259532732078, 0.08494456705260622, 0.48451673227170533, 0.43721732726440754, -0.2859484288858498, -0.17144708053958357, -0.28599234812858665, -0.3920609927359522, -0.4837673528205666, 0.01452781369889089], [-0.23820477217231528, 0.2750536857394672, -0.09516681917204739, 0.26362936868121056, -0.18749886129491522, 0.32000247608368493, -0.4425664161752303, 0.44194311189690627, -0.06213485938137042, 0.05755636609271597, -0.27102894183861803, 0.10891110369105306, 0.19382412225456436, -0.43441766929281367, -0.14151710761487168, 0.13983740950221457], [0.44575120570292137, 0.1716812723997898, -0.34496756750243773, 0.01013742400017359, -0.42959128627937204, -0.2079594274038954, -0.28772831007729727, 0.2587780972390116, 0.13092691496979914, -0.3441138698652896, 0.46607306668645243, -0.31678257786294306, 0.3082143499153964, -0.23713165364457278, 0.34183087678471946, 0.13405850207211245], [-0.38403256174406886, -0.11660866634619771, -0.3170189086898486, 0.42762614886606853, -0.23128653013470912, 0.059545419165282776, 0.27418749932215125, 0.22718557278832197, -0.3260739966877222, 0.4415865793896706, 0.05218028738795888, -0.21812560175216245, -0.15173749434430428, 0.3850728636786398, -0.24184104376835414, 0.14041859988119443], [-0.4571292811807348, -0.45892282185195277, 0.44723337546330977, 0.1445168256194732, -0.41105437904921005, -0.31514096179920137, -0.17443509034165716, -0.4421693301821824, 0.23238954511326249, -0.012255795737194819, -0.058477848889818884, -0.07705586214880178, 0.17348751564008458, 0.4259135527638266, -0.4029826039323068, 0.09957318166425844], [0.15783035311868443, -0.44736924162150615, -0.17571216580459248, 0.47746502372743505, -0.10974160540817757, 0.48959774494168273, 0.21499144571516127, -0.11191853138506469, 0.18748253904695988, -0.02806730281051184, -0.18186093777071977, -0.2121883440503055, 0.26138906682654184, -0.41883364299733217, 0.1471446099677679, -0.3698878309878908], [0.2234305519111941, -0.3515515971865837, -0.12403663475250803, -0.4308867068187435, 0.1479003139352757, -0.3564509782879671, -0.12844891835628047, 0.046906033955165016, 0.3007325838407634, -0.18019906734728808, 0.17362197952443648, 0.10400226333802942, -0.1700084534048849, -0.0798159460650627, -0.4344608075697164, -0.3253223288589536], [-0.3760732666300627, -0.11712108618075723, -0.15369354494894472, 0.23253943433466018, 0.44994539080727447, -0.4695555033079386, -0.37248899303961824, 0.4540716684455308, 0.37345357353847186, -0.1893195092514045, -0.024815380142428012, -0.40985555651573324, -0.12727394308554385, 0.3816309611023476, -0.42244200614413807, -0.4129973784181291], [0.238282167367596, -0.33263423230948164, -0.37909735095088537, -0.2534267876151811, -0.45544401861124306, 0.3238178221899871, -0.3186037413130782, 0.03252492511543337, -0.40696621012153034, -0.45302221126702236, 0.30406664954202844, -0.33083836558513435, -0.3485519769776023, 0.21015542298474, -0.2482936558938228, 0.49914192354381826], [-0.04701540229756396, -0.19826099306786538, 0.3137833802998865, 0.4938280283734172, 0.39737349760757856, -0.005370577394198772, -0.0682680114647265, 0.11135495248070171, 0.466942765658126, 0.03974412819966133, 0.23430525877646535, -0.285869011805854, -0.2968596540279511, 